704 100
paper 0.31400797 0.3323044 0.67076945 0.5293953 0.23721927 0.20973812 -0.5539605 -0.24580574 -0.0044726506 -0.1800123 0.25665852 0.1720281 0.13045506 -0.14388253 -0.46083847 -0.94277894 -0.30749574 0.25828597 0.96929324 -0.093095474 -0.05552717 0.10526523 -0.22477706 0.46022385 0.4607356 0.12753054 0.10223439 -0.07346333 0.19545709 0.40689406 0.3131776 -0.27120185 -0.6291961 -0.28364053 0.13958393 0.10455232 0.6743866 0.04271433 0.12559882 0.27627242 0.76087976 0.11248671 0.16089323 0.248534 -0.19670655 -0.26147798 0.15750225 -0.30912307 -0.36948985 -0.23193096 0.32566664 0.25882295 0.060214262 -0.016626015 0.09409243 -0.52928984 0.3902487 0.20622365 -0.37341425 0.26072428 -0.19372989 0.6508767 0.29060733 -0.6596908 0.0034673617 -0.016465256 0.38132676 0.38169178 -0.49721155 0.5271832 -0.05978315 -0.24779297 0.030930158 -0.51075906 0.50379735 0.3941899 0.24338302 -0.14134833 -0.116828635 -0.16615453 0.31032497 -0.4382127 0.52752095 0.020268295 0.26262558 -0.16933751 -0.6024356 0.57986426 -0.15978208 -0.1427173 0.45778617 -0.06444833 -0.5557743 -0.12607887 0.38244322 0.10244251 0.046503596 -0.10276097 0.27398804 -0.0499967
system 0.6147493 -0.34369332 -0.020542698 -0.110102706 -0.3324641 0.18969148 0.22423804 -0.28951457 0.60071474 -0.10092462 0.037761327 0.62903255 0.19741617 -0.33132976 0.25501612 -0.62192196 -0.17943972 -0.016867703 0.5277293 -0.7574235 -0.2571334 0.7667775 0.51295304 0.48375356 0.44478753 -0.2314408 -0.1455046 -0.39706212 -0.0026567318 0.7081688 0.113033846 -0.325038 -0.18558289 -0.20451513 0.19876325 0.3174666 0.18111445 -0.21998952 0.2829243 0.42547986 -0.24957968 -0.00083500193 0.5001382 -0.27106822 -0.042387623 0.14482298 -0.21784474 0.75908864 0.8561618 -0.59746945 0.0032753123 -0.040197484 0.12920867 0.29895547 0.13522707 0.4676506 -0.8712054 -0.033686165 -0.22929038 -0.04132718 -0.5294458 -0.18079981 -0.031844214 -0.20782897 0.19888973 0.35365835 -0.1904287 -0.060496062 0.13060668 -0.26716858 -0.030746087 -0.022565503 0.09948313 0.19008105 -0.27255616 0.16372168 0.538656 0.19512899 0.0050648926 -0.040542014 -0.132074 -0.18172872 0.20333754 0.18333116 0.6356306 -0.31715795 -0.3880774 0.5413091 -0.32414567 0.46169448 -0.70168036 0.06327941 -0.11480688 0.051111408 0.047097757 -0.24527614 0.29074895 -0.36438406 -0.49885997 0.5195471
performance 0.32722217 -0.12247728 -0.24636884 0.6002806 0.054067127 -0.2110475 0.8283263 -0.19423608 0.19977981 0.17753692 -0.49928352 0.9903151 -0.3756029 0.23898062 0.10890484 0.43118232 -0.4210378 0.5389305 0.29095206 0.49584195 0.22496246 0.2222842 0.02988328 0.18028778 0.28260297 -0.43562695 0.14862108 0.7066306 0.40350878 0.19478047 0.23741065 -0.36882868 0.66332906 -0.315343 -0.10137162 1.0076662 0.4484925 -0.054654956 -0.40082848 0.28363976 -0.033010714 0.7737083 -0.45376462 -0.17954394 0.30722466 -0.2146801 -0.24354112 0.3311702 0.107004404 -0.41856745 0.13991326 -0.2935148 -0.51988363 0.13892491 -0.708708 0.16728759 -0.10613242 -0.4118971 -0.066986695 0.10260936 0.32205707 -0.43557358 0.41135198 -0.4456708 0.6558793 0.3581043 -0.06797261 0.04957087 0.18331169 -0.33186197 0.5816956 0.12877563 0.31702572 0.6990341 -0.023835842 -0.11100869 -0.28712374 0.06191835 0.016323026 0.45469436 0.09788208 0.10585519 0.015460461 -0.48042238 -0.109232314 0.54248387 0.2948425 0.5184717 -0.31811726 0.29049248 -0.46075287 0.09927951 -0.22183742 0.30928904 -0.536553 -0.41324848 0.08470734 -0.75490904 0.22924116 0.12991521
network -0.4680716 -0.27275154 -0.4153996 0.31265882 -0.022846503 -0.022682155 0.18431279 0.64202744 0.54498905 -0.05553021 -0.28473416 0.038617395 -0.521837 0.260343 -0.1540086 -0.24804735 -0.02097013 0.115874745 -0.31546497 0.31919026 0.5158488 -0.8949129 0.13208947 -0.20204489 0.15632787 -0.94174105 0.10379856 0.050127257 -0.0014958476 0.16489416 0.33137873 0.33935383 -0.4458771 0.057245437 -0.09422337 0.29377836 -0.45289043 0.3785408 0.1937956 0.32497233 0.87754196 0.8481791 -0.32365155 -0.6536382 -0.24659589 0.16412938 0.3761818 -0.05036632 0.34519944 0.28319758 -0.23282045 0.37633026 0.2167292 1.1464151 -0.6043031 0.4884376 -0.017453745 -0.3896854 0.060399607 -0.56764853 -0.07226534 -0.37355787 0.18097186 0.18027678 -0.62393 -0.04839132 -0.31158578 -0.22449064 -0.3625295 0.3304682 1.2843151 -0.5972002 0.21216398 -0.29765698 0.14143962 -0.22525135 0.3035168 -0.31416795 0.43422988 0.8049091 -0.5629053 -0.24364582 0.73282164 0.5027219 0.35917312 -0.48134 -0.41703653 0.3399105 0.29324052 -0.44373357 -0.36456093 0.6337335 -0.3283157 0.15323445 0.57773703 -0.11797536 -0.6179481 0.61899465 -0.07172781 0.5735166
model -0.16927512 -0.16800737 -0.28056055 -0.08074184 0.09232157 0.3526992 0.21708348 -0.5036749 -0.6870114 -0.2661214 -0.080362536 -0.031017104 0.051924497 0.59774053 -0.11422672 0.37546384 -0.002355947 0.251338 0.26520243 -0.121543825 0.11304554 0.04754233 -0.20050873 -0.044992693 0.27488166 -0.12709044 0.0071810056 0.121242315 0.10616104 -0.7152668 0.48243895 0.0073274067 0.42795098 0.006113092 -0.57173514 0.14632313 -0.28408465 0.30752367 0.1143108 0.8233688 0.32534707 0.14300096 0.36254272 -0.15273829 0.43346715 -0.03406808 0.41822731 0.34672883 0.30496573 0.43940973 0.0729098 -0.21049364 0.08964744 0.07802281 0.6806661 -0.2986367 0.5466056 -0.14507008 -0.019818826 -0.09576557 0.19142698 0.12934467 -0.35081264 0.28979105 0.47420466 -0.108205765 -0.18956098 0.21485704 -0.18781418 -0.18839227 0.2704626 -0.13793321 -0.27254316 -0.10501151 0.76386046 0.21726853 -0.08403583 -0.32456726 -0.21385126 0.10452399 0.13745596 -0.08933078 0.22489917 -0.58766335 0.3348997 -0.022395162 0.12449598 0.3374142 -0.5292099 -0.0022687446 0.08632252 -0.2006305 -0.6929024 -0.14711843 -0.38817182 -0.48471734 -0.054033194 -0.060063057 -0.30930027 0.406185
service 0.59489393 0.3298962 -0.7614983 0.41165942 -0.6208185 -0.356083 0.15642338 0.49076405 0.29034144 -0.53734326 0.49262223 -0.6729066 0.08785714 -0.9986218 0.720832 1.0093843 0.3260151 1.5997176 0.3070261 -0.5857248 0.25811294 -0.880773 -0.0794238 0.51764256 -1.1640472 -0.13223633 1.1675785 -0.43875706 -0.26026964 -1.0535718 -0.024626622 -0.21742333 -0.111837745 1.4070383 -0.47620788 -0.32932007 0.94163805 -0.33752054 -0.6367075 0.36718425 -0.12162949 1.0128028 0.11739983 -0.2522609 -0.41814947 -0.17241271 0.27352163 0.2709639 -0.9544591 0.35023516 -0.96798813 0.5589407 0.3535238 0.5630778 -0.31882212 -0.5429698 -0.36534324 -0.80235195 -0.7924451 -0.23621537 0.53309995 0.3385846 0.029681608 0.5449248 -0.4350138 -0.027684921 1.176331 -0.782499 -0.2612341 0.23772661 -0.28892332 0.04350557 0.5985016 0.6336505 0.5248429 -0.25144842 0.60180503 0.18563524 -0.574397 -2.4268444 -0.30057254 -0.23726198 0.28865954 0.77414995 1.2639798 0.2250808 -0.19217074 -0.26922 0.078164876 0.35486424 0.023651967 0.36217725 0.46444154 -0.63615054 0.31616044 -0.08257844 0.62907904 1.6412671 0.7036536 0.120398015
time -0.47623402 -0.16065508 -0.037154965 0.1914824 0.20391284 0.62414676 0.86329937 -0.24825266 0.61152065 -0.28500944 -0.2345887 0.3401089 -0.057373933 0.95848894 0.07099831 1.2310016 0.3164964 -0.0467371 0.14448218 0.542719 0.50928855 -0.12427314 -0.24353927 -0.7058407 -0.6047598 -0.22304663 -0.079850085 0.32071704 -0.21526423 0.3629828 -0.2833679 -0.011407397 2.024646 0.21081328 0.65815014 0.8241476 0.69915074 -0.67000777 -0.32501015 -0.6817808 -0.07059685 0.10643316 0.5961696 -0.48245895 -0.48183432 -0.13196842 -0.1946549 -0.16533312 -0.5428665 0.77169347 -0.09847493 0.0037157813 0.47423735 -0.26043248 -0.3126192 0.029300883 -0.1995086 -1.4055977 -0.28751928 0.74400246 0.10095676 -0.53694314 -0.24094914 0.6767378 1.00108 0.017346347 -0.09826516 0.16821606 0.7556315 0.26572338 0.12165963 -0.54116404 -1.1931487 0.6724356 0.9278407 -0.027320348 0.578188 -0.11941695 0.08599983 0.19776352 -0.03554636 -0.804745 -0.069465384 0.09626128 -0.5091717 0.464815 -0.38717693 -0.1948765 -0.7830967 -0.31215087 0.16382082 -0.0035006788 0.8709352 0.2046983 0.24099246 0.2807533 0.60187644 -0.6728011 -0.7016002 -0.5696885
information -1.4893416 -0.32163945 0.06299385 -0.50101995 0.2808258 -0.05664219 0.06567904 0.54093844 -0.82186484 -0.76322436 0.13110077 -0.5666793 0.30596647 -0.36837468 -0.12044774 -0.40937874 0.35058257 -0.051857 -0.28438827 -0.6034563 0.4779263 0.26846787 0.099731624 0.3264719 0.19986077 0.5473569 0.13316478 -1.262412 -0.8532614 0.07496936 0.48666626 -0.48715803 -0.7737266 0.41242 0.21684583 -1.1556513 -0.41514212 0.41923276 0.2119983 0.39352342 -0.2743606 -0.13852848 0.7086345 0.20442306 0.45437998 0.535414 0.31675792 -0.11149816 0.5019002 0.6119606 0.33636382 -0.41526067 0.2329346 0.41653386 0.55735755 0.0005387692 -0.20459267 -0.41269675 0.56814915 -0.21084635 0.0055743433 -0.5045343 -0.7694115 -0.50726986 -0.32987553 0.6083452 -0.28545552 -0.3068674 0.4447562 0.27060252 0.058981292 -0.898324 -0.31294695 0.25179332 0.38138267 0.110493965 -0.016328039 -0.06586994 0.0851102 -0.2961799 -0.26577434 0.1144549 0.39915094 0.8335328 0.4771062 -0.57806176 -0.22499058 -0.60788924 -0.103369385 -0.6707075 -0.63700414 -0.24817078 -0.098850414 -0.46904203 0.8940188 -0.15542378 -0.39435554 0.68940824 -0.07277859 -0.7907186
approach 0.32736173 -0.5456931 -0.029485295 -0.17621411 -0.14410688 0.06573728 0.6080646 -0.21528645 -0.102000915 0.03397171 -0.06905563 -0.028527124 -0.4318934 0.010950047 0.11458921 0.20232773 -0.11180028 1.0074079 0.9009989 0.16891065 -0.19911349 -0.07166877 -0.33275437 0.12188391 -0.021683738 -0.13803309 -0.0892538 0.03514142 0.20355645 -0.5303277 0.6268498 -0.5188127 0.5350256 -0.09459996 -0.0962817 -0.5016154 0.35450354 -0.56890976 -0.36476034 0.6823075 -0.069230966 0.37260428 0.39617124 0.35842076 -0.16231395 -0.061257634 0.47848496 0.6210816 -0.096689194 0.27632672 0.24442117 0.06924195 -0.608825 -0.55331975 -0.29234964 0.17354533 0.05068225 -0.060749367 -0.26870495 0.18255031 -0.15032466 0.25331107 0.17295349 -0.21543844 0.5336602 -0.0049498896 0.07506953 -0.38410217 -0.46203792 0.2640985 0.3827543 0.5893733 0.673985 -0.15777034 0.39899123 0.66668034 -0.17743652 -0.020104352 -0.03499775 0.09957777 -0.051810924 -0.62943816 0.09274653 -0.6508091 0.14190117 -0.18562582 -0.18550721 0.23105727 -0.2198524 -0.3112648 0.5503318 -0.37836134 -0.55122155 -0.19679575 -0.3877723 -0.50582653 -0.05877768 -0.33186787 -0.9196321 -0.28905872
cloud 0.66300046 0.917764 -0.7667506 0.2833237 0.52599233 -0.2527696 0.27407962 0.5053254 0.943728 -0.55874485 -0.015081172 0.51279193 -0.2598443 -0.4261329 0.7206061 -0.8043503 0.32640144 0.45101538 -0.21595095 -0.29002467 -1.1339759 -1.0229042 -0.3428583 0.46539205 0.12802581 0.39725378 1.001928 -0.8987523 -0.12104314 -0.1155276 -0.0698283 -0.232424 0.016860383 0.56223094 -0.002310261 -0.7385594 0.06598989 -0.5108912 0.27254874 -0.68556535 0.41636494 -0.04809885 -0.30706906 -0.10144669 1.2724679 -0.5301553 0.27493212 -0.60222524 -1.1336646 -0.98778653 -0.33553115 0.16906144 0.047984887 0.80507696 0.52371866 -0.11903688 0.3084217 -0.21903624 -0.5992345 -0.18660848 -0.2749053 -0.2623373 -0.17636535 -0.22191994 -0.1646895 -0.6027921 0.95435923 -0.21572213 -0.04200505 -0.41768855 -0.42964306 -0.04209649 1.0791382 0.7807018 -0.113412105 -0.23105533 0.94897884 0.22630258 -0.11712785 -1.1222026 0.009826404 -0.17959781 0.07607099 -0.063362755 0.2855786 1.0204444 0.0031904806 -0.26965368 0.15717879 0.96644044 -0.84543467 0.70364904 -0.19565801 -0.40672773 0.53281283 -0.958152 0.6800837 0.63061523 0.3248195 0.17357962
problem -0.03192005 0.59268504 -0.11897055 0.83263904 0.0007814216 1.0539325 -0.3343299 0.70263207 0.1702137 -0.38766944 -0.20848759 0.21078032 -0.76193935 -0.040524337 -0.92825216 0.95695686 -0.4948318 1.0794649 1.2088374 0.5913551 0.52937347 -0.20721081 -0.63800323 -0.40279073 -1.328918 0.9091074 0.038804047 0.24991125 -0.3446428 -0.310543 -0.35497513 0.51759547 0.10116729 -0.18387617 0.34489945 0.20852858 0.5730265 -1.0693567 0.8921359 -0.6977235 0.8920035 0.37688562 0.3525176 0.17811222 0.560464 0.07128448 0.6481946 -0.5410252 -0.16287646 0.9452644 -0.25358036 0.90853536 0.3816552 -0.32212692 -0.5966186 0.20385413 1.0609009 -0.10429809 -0.4402096 0.67598176 0.412024 0.96945155 0.38885772 -0.97671455 0.58938926 -1.0640281 -1.5039346e-05 0.44413653 -0.5105073 0.59770775 0.24832036 -0.16023779 0.2977342 -0.60231394 0.3394464 0.066119425 0.14205305 0.13288875 0.10402428 0.2612442 -0.16206504 -0.6935421 1.1389673 0.002735337 -0.66660064 -0.062496062 -0.3402726 0.7595206 -0.61103356 -0.84217215 1.4472047 -0.5690817 0.06615447 -0.7249349 -0.4868698 1.3720952 0.7464594 -0.42812783 -0.19239609 -0.11612481
process -0.14092684 0.17456625 -0.12508611 0.09350499 0.5327962 0.20872581 -0.028006332 -0.47712088 0.05425717 0.116537064 0.40935013 0.10111287 -0.16097593 0.2569971 0.055471957 0.1831636 -0.20894435 -0.12689844 0.6634878 -0.7952914 0.0012270695 0.10241299 -0.02759568 -0.10169998 0.7284118 0.5709622 0.36978215 0.15628473 -0.53487897 0.31641108 0.19272 0.117217116 0.077253826 0.55780274 0.06920361 -0.84649 -0.24271865 -0.2612279 0.41760513 0.14361313 -0.27305576 -0.0024381042 0.6924373 -0.3752103 0.592855 -0.5333567 0.49368194 0.15801376 0.45691973 0.51288533 -0.5587392 -1.022789 0.3437215 0.4226074 0.49032322 -0.05953391 -0.8707707 -0.32594287 -0.24882856 0.023404177 -0.7326953 0.24627355 0.39019912 0.37384507 0.24189165 0.026970146 -0.06425919 -0.48360878 -0.30306578 -0.07607657 -0.3277902 -0.7848294 -0.73807895 -0.08935098 -0.31387994 0.22990786 -0.42302203 -0.1459612 -0.38591102 0.10455795 0.15369609 -0.55029124 0.101186335 -0.34043851 -0.27455008 -0.22347379 0.4220923 0.27075252 0.19880386 0.1287898 -0.6519785 -0.6337172 0.053547166 0.30309215 0.278901 -0.109443866 0.2221229 -0.85030943 -0.49233454 -0.76118326
security 0.56805444 0.54635435 0.45924196 -0.22294748 -0.6208951 -1.1607538 -0.7559365 -0.300349 -1.5130254 -0.84007865 -0.43552658 -0.7176696 0.08821629 -1.4397937 1.1774745 -0.14009745 -0.28696486 -0.29091886 -1.0760984 -0.56140554 -1.1465319 0.014329207 -0.29855096 -0.00772924 -0.35374287 0.009315238 0.60733575 -0.5370118 -0.47425213 0.9618056 -0.43152314 -0.4967427 -0.6933152 -0.92481333 0.071479894 0.74405086 -0.18167745 0.1958048 0.72246885 0.03511432 0.32714233 -1.2501516 -1.0060881 0.6885364 -0.36490777 0.25028095 0.30491143 -1.0196433 -0.08748317 -1.0259134 0.41034025 0.5141485 -0.84280777 0.38355452 0.0757739 -0.30699903 -0.17384556 -0.34413743 -0.5577755 -0.27438465 -0.45491394 0.7067273 0.026081929 -0.989404 0.26525438 0.18258882 0.13339719 0.2543642 -0.03386523 -0.30156535 -0.31078264 0.08862086 0.02706274 0.37294737 0.27403396 -0.4512971 0.800753 1.0839577 -0.49108064 -0.65284425 -0.77484703 0.2780242 0.3298836 1.100341 1.1903894 -0.7126696 -1.3928928 -0.79328465 0.13908312 -0.29234573 -0.43423742 -0.28836983 -0.9032833 0.7760181 1.1756785 -0.9271029 -0.2044911 1.1266333 0.7869947 -0.33666816
analysis -0.33306712 -0.34764388 0.38006225 -0.19932854 -0.96054924 -0.12402805 0.30154294 -0.8664292 -0.37183404 -0.0025101232 0.044612836 -0.88227624 0.15739457 -0.1893569 0.2225829 -0.8303814 -0.82133144 0.39539367 -0.037116922 0.08978499 0.21969266 0.37930837 0.5207078 0.02438933 0.33937302 0.12658423 -0.36601472 -0.6717457 0.4424682 0.3320412 0.5037158 -0.8731818 0.14327577 -0.14487712 -0.47930405 0.20815958 0.27739656 0.41316253 0.6888199 -0.17200448 0.27982193 -0.18675283 -0.1773825 -0.29191154 0.32983735 -0.16063471 0.25426006 0.9771686 0.073967114 -0.4754641 0.16219176 -0.3861377 -0.42285895 -0.37918383 -0.6745844 0.33970517 0.25462526 -0.27469784 0.22269669 -0.08474474 -0.6376377 -0.23511925 -0.4859525 0.44311866 0.50754654 -0.110695384 -0.58552915 -0.7306086 0.14044233 -0.18059479 0.00035505937 0.21072195 -0.2910589 0.39957628 -0.07896314 0.34587076 -0.5903403 0.23642632 0.115742385 0.28784907 0.58609533 0.49880588 0.23064269 -0.25041872 -0.110549495 0.029321078 -0.19255863 -0.16515729 -0.63826424 -0.11111266 -0.7239009 -1.4960428 -0.6129795 0.8566634 -0.13489585 -0.25015503 -0.4390485 -0.36949778 -0.18467101 0.35017395
application 0.91424245 -0.6043312 -0.20016056 -0.6219496 -0.34343228 -0.5379943 0.010185972 -0.61099386 1.1312286 0.02150057 0.13210809 0.4266768 0.058465224 -0.2120499 0.051740155 0.05441556 0.09795266 0.21002832 0.47508118 -0.40458128 -0.13880984 -0.1383823 0.07084907 0.082095146 0.05682784 -0.05839241 0.9319123 0.77403945 -0.28868803 -0.15280731 -0.39922884 0.08327659 0.0016341875 -0.006654738 -0.16348393 0.38294795 0.7990192 -0.11422863 -0.3972163 -0.018392313 0.9035578 1.1267849 -0.36651653 -0.36364883 -0.44787607 -0.47519216 0.07350506 0.83089566 0.23061869 -0.33216706 0.29209456 0.1976253 -0.5855464 0.053065512 0.30940896 -0.21382077 -0.23743954 -0.3882893 -0.29634658 0.04273519 -0.32717356 -0.18814538 -0.29101175 -0.109134786 -0.32512912 -0.015025723 0.813733 -0.16317119 -0.30357748 0.4381462 0.4340687 -0.45776877 0.014309382 0.026088234 -0.68161184 0.8908852 0.49776652 -0.11841897 -0.71392596 -0.12202729 0.14416108 -0.28779426 -0.32578313 0.25030756 -0.17551717 0.026616616 -0.17337713 0.30222338 -0.3246233 0.08242716 -0.1338616 -0.66434544 0.4883476 0.17142792 -0.43404043 -0.6165854 0.10452501 0.16572933 0.17476971 0.46596974
method -0.87589204 -0.68564624 0.3969786 -0.078534015 0.53279793 1.3780158 0.48435286 -0.3085948 -0.805075 0.27848622 -0.08876958 -0.7070094 -0.47278547 0.38533205 0.27910617 1.001548 0.08243026 0.11606333 1.1191716 0.11030669 -0.34874523 0.60703284 0.055705 0.14646322 0.18820798 -0.62692404 -0.53434217 -0.042353045 0.33604997 0.11481642 0.7366699 -0.18989818 0.07748667 -0.18444647 0.027934974 -0.067070626 -0.7537342 -0.57053053 -0.5988772 0.65525377 0.015576706 -0.04943643 0.94379854 -0.21810488 0.1813844 -0.12996747 0.58779204 0.7600077 0.02680287 0.24371397 0.18315993 -0.16690336 -0.12486713 -0.3006637 -0.4440922 0.20312664 0.59073955 0.07123378 -0.42638034 0.55052644 0.5551961 0.5100497 0.016912369 0.53118384 0.85261345 -0.56003135 -0.49277937 -0.30948523 0.024259344 -0.6385431 0.08514095 0.53876615 0.14010915 -0.31478867 0.5215562 0.09083083 -0.36600012 -0.17813237 1.0099425 0.93345517 -0.08334614 -0.118125826 0.6308339 -0.36346272 -0.270153 -0.5558117 -0.1941279 -0.30260175 0.36561283 -0.3209385 0.908275 -0.66034704 -0.68552345 -0.2572604 -0.47530788 0.05096352 -0.4589903 -0.79848874 -0.51234937 -0.1231244
research 0.13914214 0.035194337 0.4743952 -0.1331693 -1.0259992 -1.0989792 -0.43003106 -0.21035512 -0.13989443 -0.8801072 0.72713596 0.075621 0.5911402 -0.47696236 -0.101513006 -1.1466525 -0.07243429 -0.1147463 -0.053621843 0.049034018 -0.45545533 -0.54262286 -0.2621264 0.16502585 0.8708595 0.2664821 1.2488813 -1.0620787 0.40087503 0.1403181 0.22506341 -0.024347048 -1.1583982 0.23796786 0.008917891 -0.28199872 0.13858522 -0.14932276 0.42195863 -0.014534008 -0.08416598 -0.017798247 -0.30665547 0.4661146 -0.1101573 -0.43251893 0.8640447 0.5445343 0.27445078 -0.49658293 -0.27229685 0.2284371 0.43095988 -0.8568471 0.7895174 -0.19087523 0.45898306 -1.0948111 -0.104013786 -0.37330502 -0.8478057 -0.085474454 0.24448873 -0.52251804 -0.4037821 0.30551785 0.16903628 -0.2357222 -0.23115464 -0.31460997 -0.4564439 -0.21569455 0.008981221 -0.16728552 -0.9885089 1.0872132 0.5508477 -0.2350998 0.5617364 -0.15161325 0.6376015 -0.2509915 -0.11377126 -0.49624625 -0.48426476 0.05588151 -0.25398645 -0.70465755 -1.1640506 0.80399287 0.45765707 -0.0018975426 0.8346984 -0.118023984 0.080993496 0.35769945 -0.28375244 0.0011064216 1.3899524 0.047447693
framework 0.2976849 -0.41135877 -0.07679423 -0.32840925 -0.59775686 -0.2563574 0.14966552 -0.6972656 0.6594051 -0.4259254 0.005655389 -0.30952656 -0.3023606 -0.066117294 -0.039355334 0.010701882 0.16617587 0.77626705 0.82148373 0.5961739 -0.79116076 0.40170044 -0.80419296 0.97441936 -0.2206682 -0.26416567 0.056143925 -0.68421334 -0.52033234 -0.2767414 1.0545255 -0.4298811 -0.04578312 -0.026091032 -0.39503524 -0.44441712 0.7052167 0.1922399 0.5650148 0.33726716 -0.032435 0.3348792 0.5983105 -0.46146154 0.51577747 0.43529612 0.13180773 0.6580808 0.33126318 0.072107315 0.5836368 -0.22176534 -0.43350962 -0.02312068 0.35046867 -0.5627745 0.109440826 -0.23486462 -0.43854177 0.5205907 0.34538805 -0.18593715 0.33563495 -0.09736792 0.21883218 0.19653901 -0.051259708 0.23194085 -0.7015823 0.2826475 0.18635978 0.05715093 -0.009510413 -0.23448555 0.31720862 0.84807473 0.076604955 0.31460166 -0.30316904 -0.6432758 -0.28875244 -0.5524115 -0.31119633 0.40780276 0.8034488 -0.3543914 -0.42706767 0.8704121 -0.30990803 0.3805661 0.18453446 -0.1681993 -0.79104185 0.22731926 -0.35239917 -0.5320324 -0.05154283 -0.23610887 0.019578015 -0.04794037
number -0.29712716 0.4296682 -0.16959693 0.3599723 0.33958057 -0.11837103 0.15790704 0.14919488 0.19015993 0.3497779 0.0022163591 0.45900694 -0.26876456 0.0075245057 -0.58140594 0.3570693 -0.22873977 0.39224973 0.14530702 -0.24457493 -0.4019795 -0.3806865 -0.20779112 -0.67294276 -0.56789935 0.23899058 -0.020201262 0.38936228 0.55482394 -0.28190702 -0.15582643 -0.29070726 0.4098092 0.2833516 0.6266139 0.46122456 -0.007953253 -0.74788004 -0.28640863 -0.22982119 0.18483725 0.16446407 -0.29619315 -0.41432244 -0.34416878 -0.31983474 0.2252924 -0.11698685 -0.17863268 0.19952376 -0.6717494 -0.12604226 -0.2418075 -0.12609546 -0.20386083 0.40333992 -0.18086542 -1.15808 0.6379102 -0.836426 -0.067726016 0.073956855 0.14335671 -0.05445449 0.045662068 -0.2734738 1.0754496 0.53610986 0.22279106 -0.3523346 0.43822044 -0.09546423 -0.3444191 -0.4873802 -0.74507326 -0.092608504 0.044018827 0.27976102 -0.11011959 0.5039481 0.3564353 -0.28140622 0.6061164 0.08178977 -0.55513716 0.35438752 0.4704825 0.017449792 0.32395324 -0.08788489 0.06273919 0.62132204 0.41788006 -0.19731298 -0.6602407 -0.15964234 -0.23252285 -0.0111605935 -0.16535729 0.018047063
resource 0.6049932 0.8647291 -0.44473305 2.2334368 -0.13766575 0.6907472 -0.11637938 0.8131072 0.5102413 -1.1226076 0.40312475 1.7172587 -0.5047509 -0.6617229 -0.36774796 0.072240554 1.2386243 1.3506198 0.3373064 0.46743292 -0.2504786 -0.24374653 0.10971601 -0.30694658 0.0776161 -0.52294034 1.2395985 -0.38823843 -0.751739 -0.09052214 -0.67846453 -0.49698392 0.35592127 1.6011814 0.7717818 -0.46092683 0.14661215 0.035678294 0.5071568 0.23871377 0.44843796 0.54126865 0.42446297 -0.25304052 0.22761612 0.514687 0.2500958 -0.4344786 -1.3734726 0.24241519 -0.35440156 0.86558044 0.45939878 0.65830106 -0.64208347 -0.97108835 0.87797433 -0.26329103 -0.8809927 0.35074463 0.5320768 0.07389254 0.55071145 0.6653474 0.2078006 -0.36676365 0.6173732 0.8522857 0.0775889 -0.50090986 0.07101654 0.81860405 0.26953658 0.9820969 0.45608196 0.17158908 0.19105923 0.16713162 -0.5646205 -0.52868867 0.017654734 -0.60612214 -0.66552395 0.27673888 0.40596768 0.4308536 0.5521998 1.1207863 -1.5922022 -0.102826916 -0.030739238 1.3415875 0.51162827 -0.18427783 -0.16379927 0.8036773 0.21200643 1.0598804 -1.0221268 0.4035104
environment 0.37264693 0.5273158 0.5231857 -0.54509056 -0.18591598 0.084161595 -0.35459748 0.040078245 1.6997228 0.37702906 0.22576775 0.08726348 0.77793777 -0.3263 0.81575096 -0.09334943 -0.3131611 0.5818878 0.10393166 0.22315015 -0.50541437 -0.17228651 0.056125607 0.16796389 0.7340612 0.36416417 0.51422054 0.15198632 -0.17428428 -0.40202156 0.2122013 0.06367676 -0.08905488 0.1737281 -0.33027652 0.26997027 0.8488509 0.4676924 0.42309502 0.1270866 -0.096928865 0.35861498 0.12984115 -0.15375434 -0.09646287 0.038652558 0.09246484 0.014309728 0.20166257 0.13826834 -0.086225055 0.0067156656 -0.17884164 -0.031515367 -0.64135665 -0.45878732 -0.17031668 0.6255026 0.45494464 0.028795883 0.11036548 0.17695689 -0.045322042 -0.4679194 -0.077007405 -0.43767264 0.83695513 -0.49239215 0.18464436 -0.68383217 -0.0070634987 -0.16493785 -0.07306819 0.5636551 -0.3560513 0.6634433 0.32976964 0.16602235 -0.15134713 -0.1087263 -0.033301413 0.06040053 0.011291771 0.9278607 0.40372303 -0.25459096 -0.7531649 0.6435106 0.23663746 0.29508337 -0.8090037 -0.43322608 0.32190296 0.65251946 -0.354576 -0.50543255 0.31836438 0.36838052 -0.40165052 0.21985328
algorithm -0.5376347 -0.52090997 0.3514576 0.17791118 -0.2638062 0.6485077 0.7070427 -0.12484621 0.62306285 1.107809 -0.50276935 -0.016718484 -0.5785789 -0.06468029 -0.9501546 1.254766 -0.1762579 0.4566632 1.0790136 1.214714 0.942368 0.01443828 -0.31517294 -0.0071574976 -0.5746083 -0.17600062 -1.0356218 -0.1576842 -0.5226715 0.25960764 0.39960554 0.6091476 1.13576 0.0021535945 -0.08244253 -0.1523628 0.43652752 -0.4652505 -0.1592322 -0.0636702 -0.08203416 0.23991337 0.26461798 0.16467153 0.025173431 0.1389796 0.6618696 -0.1197233 -0.09693339 0.6372602 0.34659058 0.2403264 0.7319734 -0.124157764 -0.57299423 0.670656 -0.008532389 -0.07146427 -0.8224058 0.2940978 0.2325013 0.1466639 0.5702721 0.4427846 1.2323048 -0.7123681 -0.7667912 1.2837292 0.2848861 -0.17908415 1.0391885 0.51827115 0.616568 -0.3385761 0.56513304 0.3421818 -0.44610986 -0.07162164 0.4007403 0.9667653 -0.7847516 -0.8350204 0.7193017 -0.6829951 0.12390648 -0.14703897 0.49878615 -0.7690205 0.4014138 -0.5978825 1.3678936 -0.359307 -0.07860408 -0.4538759 -0.4728125 0.41671994 -0.18302342 -0.5520203 -0.33130094 -0.23078062
energy 0.63651675 -0.09365518 -0.12089226 1.1197969 -1.3559544 0.5510179 -0.7710237 0.7881364 0.12244151 -0.40968758 -1.0314187 1.6397978 -0.8884949 1.288534 -0.7188279 0.95042783 -0.11465131 1.8256371 -1.3213031 1.4517139 -0.36755478 -0.0038847732 -0.16848703 -0.43408942 0.06476638 -0.89973104 -0.2446547 0.12800254 -0.98673356 0.070178136 -0.26136523 1.4081485 0.11820269 0.44534397 0.7537133 2.0704787 -0.22983891 -0.16136052 -0.117308654 -0.87229764 0.8633074 -0.16837317 0.17648101 -0.09035019 0.24753395 0.39791736 -0.26760805 -0.6249682 0.13209537 -1.200197 -1.0135025 0.8131375 0.9420701 0.05972528 -0.64341164 0.37167364 -0.6666088 0.079510495 -0.6027462 0.7542234 0.12722433 -0.7941183 1.4112076 0.8643978 0.2598012 -0.79550815 0.24202128 -0.7085594 0.84533364 -0.016447376 -0.28316575 1.1517943 -0.4921658 0.3960912 -0.27193817 -0.5521689 -0.0020025321 -0.11993194 0.40253547 0.16116709 -0.4527184 0.56958765 -0.058825776 1.076866 -1.150419 1.5976411 0.019517858 -0.31940416 0.2870056 0.7503793 -0.51460415 0.6616144 -0.39596227 0.3033552 0.6557236 -0.22790742 1.092944 0.12802866 1.1756946 0.6055373
management 0.19876064 -0.26512018 0.10095232 0.17713377 -0.3580731 -0.7217248 -0.44966435 -0.5944713 0.40110773 -0.6115019 0.13779163 0.38821858 0.20133092 -0.24700058 0.37369603 -0.96755624 0.067574516 0.5801134 0.07911169 -0.1815755 -0.4514409 0.32663655 0.11650244 1.4102523 0.28689623 -0.8808792 1.0316927 -0.43015325 -0.2951032 0.43807346 -0.48971435 -0.349298 -0.8043676 0.3125874 0.7238377 -0.2140307 -0.27930716 0.026952045 0.8626136 -0.59652114 0.36315578 0.04792735 -0.016464932 -0.25154167 0.39161766 0.07336995 0.006879707 -0.11854163 -0.65377593 -0.73311585 -0.60961986 0.08624811 -0.14482197 -0.3778532 0.3273387 -0.082105055 -0.5441559 0.22968613 -0.97503114 0.3360819 -0.20500791 -0.47555065 -0.1924177 -1.282123 -1.4488833 -0.6716524 0.53813684 0.22790954 -0.7236142 -0.52894366 -0.94876987 0.060222544 -0.08809055 0.36377126 -0.20017995 0.010783518 -0.08208641 0.1362966 -0.5515377 -1.2904171 -0.16996683 -1.2773808 -0.3654435 0.55820954 0.96474886 -0.6941111 -0.83898973 -0.4592156 -0.9952476 -0.21793221 -1.2768888 0.6253087 -0.08943674 -0.4845204 -0.12049876 0.2537049 0.741049 0.73211807 0.03913615 -0.8196419
architecture 0.34652862 0.5943427 -0.44814986 0.014397924 -0.2566264 -0.5757249 -0.11509382 -0.24309105 1.4058659 -0.60830843 -0.7037779 0.19052532 -0.13144152 -0.014686197 -0.6965053 -1.2478889 0.6518852 -0.76629376 0.38903245 -0.07961328 -0.5082089 0.8262759 -0.52325636 1.1646985 0.056412566 -0.65996975 0.69727546 -0.026954018 0.54040504 -0.1866335 0.12269141 -0.38042894 -0.22514868 0.5412473 -0.301059 0.16735646 0.42479795 0.3715782 0.1734373 0.5934432 -0.27707207 0.5824993 -0.1921503 0.32850814 -0.08787364 0.16779718 0.009595451 0.9038406 1.3388308 -0.9580047 -0.19896097 0.16485761 0.26034036 1.1478322 0.32980502 -0.52314895 0.1001322 0.61485547 -0.7854129 -0.007262063 -0.33739597 0.2657131 0.6058288 -0.6022191 -0.45525488 -0.2509504 0.30832452 -0.40068832 -0.30587733 0.062404532 -0.12841944 -0.5780314 0.25272024 -0.7571097 -0.66745764 0.483842 0.07024036 0.25879857 -0.41333756 -0.5793778 0.37763846 -0.40401095 -0.184097 0.21946917 0.9175104 -0.7612542 -0.6767343 0.091980904 -0.50129086 0.53646934 -0.15667583 0.12791246 -0.70569664 0.62794256 0.29181436 -0.5036376 0.032616355 0.4632045 -0.42273724 0.12519474
access 0.68976873 -0.6373838 -0.21377856 0.20214446 0.5085762 -0.7509682 0.4050898 0.30147818 -0.56428266 -0.3012817 2.0709443 0.33198142 0.18224458 -0.21847256 0.5320715 0.4914045 -0.5431792 -0.5851319 -0.12202051 -1.0857902 0.17638093 0.11181553 0.4134868 0.56768936 0.8478246 0.16393036 1.2087609 -0.60987514 -0.0633337 0.37464634 -1.3904326 -1.5770228 -0.40367043 0.4448699 0.33684018 -0.8365613 -1.1017909 0.7063971 0.6262796 -0.7035492 -0.061956633 -0.84386563 -1.0033379 0.12140134 0.028599298 -1.0470539 -0.54800266 -0.71965885 -0.422274 -0.09066904 0.7388997 1.3822223 -0.0028574688 1.7800928 0.17710394 -0.91904527 -0.7445044 0.88138455 -0.2851297 -0.11240989 0.9325061 0.3462989 -0.32804722 -1.8677858 -0.08623244 -0.018896278 0.25931126 0.53870624 0.3861021 -0.84417176 0.09680638 -0.18196863 -0.1915503 0.34120595 -0.3031474 -0.10492097 1.1143187 -0.07822733 0.13312379 0.12929071 -0.8778559 -0.20375955 -0.3695345 0.818129 0.29633728 -0.32949945 -1.4035457 -0.12887403 -0.040459517 0.88644975 -1.6257311 0.5618285 -1.0180838 0.19976607 1.4306266 -0.52776265 -0.4690951 0.4450938 -0.13803522 -1.0699916
scheme -0.0887707 -1.3056028 -0.19906363 -0.25679684 -0.24551411 0.74533516 -0.029301248 0.035388637 -0.4442845 0.20537128 -0.7694473 0.017866032 -0.904574 -0.21443976 0.7887039 1.2869993 0.32594952 -0.047929045 0.38784146 -0.19698466 -0.98626417 -0.42916408 -0.69208336 0.14357592 0.9912442 -0.6588396 -0.83610004 -0.9019123 0.7116609 0.37529308 -0.6054443 -0.8257391 0.77362806 -0.54913247 0.9420967 0.003122707 -0.43738154 -0.54592 0.24041313 0.082060575 -1.0670322 -0.54875267 0.93705815 0.45043427 0.17910764 0.99890006 0.5389468 -0.9115893 -0.8434272 -0.7128721 0.552964 1.1403899 -0.71466213 0.5041543 -0.52606034 -0.19732022 -0.32680702 0.3107999 -1.0846392 0.01640246 0.20920537 1.638008 0.6020508 0.31046534 0.9788666 0.41651154 0.10928143 -0.027076837 0.73599786 -0.9065948 -0.09544033 0.36124122 0.3707771 -0.13169211 1.5899554 -0.83838606 -0.2773837 0.59451425 0.32890305 0.93366885 -0.19595672 0.53767955 0.5701852 0.9208881 0.65845186 -0.15866405 -0.9403615 -0.32668763 1.3328298 0.09233451 -0.05104966 0.3281263 -1.9036056 0.97473186 0.42942807 -0.15938967 -0.37289003 0.7219825 -0.89823276 -0.5578828
communication -0.15375385 -0.9111047 0.24370882 -0.12744787 -0.08729642 -0.50635594 -1.0607835 -0.35608184 0.44773394 0.34103635 -0.60457176 0.37612247 -0.25520706 -1.0358757 0.19415388 -0.5073605 -0.6266088 -0.58773255 -1.6740437 0.11793054 0.36035892 -0.054077834 -0.43505558 0.07866722 -0.08740198 -0.0049460884 0.39964905 0.6276975 -0.07112681 0.50634557 -0.5225673 0.56202966 0.3672244 -0.52445334 0.45890787 1.2708105 -0.33877486 1.0702966 0.3769556 -0.1839222 0.09295532 -0.16662356 -0.98820394 -0.04116449 0.19928938 0.499696 -0.4183564 -0.5753542 0.9221737 0.7470865 -0.5060384 1.1810291 0.4921038 1.7223412 0.6556186 0.12631452 -0.37287483 0.30945382 0.39126152 -0.32998818 -0.050942615 -0.281451 0.5965203 0.5379888 -0.7857913 0.41444558 1.5162251 -0.4150341 0.54149514 -0.008234791 -0.507038 -0.29178894 0.016289532 0.3132391 0.25556824 1.0540805 -0.30842188 0.49799016 -0.79062325 0.49753714 0.2218946 -0.13914344 0.23497874 1.5327363 0.08563103 -0.15756793 -0.7176642 0.045616243 0.68254995 -0.18187091 0.23250574 0.94094723 -0.75604314 0.12230598 1.0291249 0.0990055 0.19060086 0.54459333 0.10005539 -0.95762086
execution 0.9191494 -0.34919322 0.2352757 0.43589947 -0.07775651 0.28814694 0.4529187 -0.43115234 0.8819827 -0.52437514 0.24383785 1.8459203 0.8965443 0.10827494 -0.32417277 1.3212698 -0.9563306 0.99064994 0.14275646 0.24744022 -0.123580016 0.77252066 0.13230725 -0.3360401 -0.7367464 0.5732656 0.37298134 1.9229349 -0.43347502 -0.21374975 -0.6411571 0.13967013 1.6827447 0.4552324 -0.2185044 0.17343639 0.30007702 0.4336978 -0.32818356 0.1480513 0.47484273 0.9347876 -0.49760476 -0.37854025 0.6890579 -0.15555936 -0.36264053 -0.24758041 -0.3469488 1.4125563 0.47703788 -0.07082684 -0.16400689 -0.14803493 -0.32390186 0.54018503 0.13736616 -0.51085824 -0.43880177 0.61050355 -0.15952659 0.44714066 0.114777215 -0.20079654 0.3170445 -0.0007784713 1.2878977 0.07255905 -0.36398485 -1.3560653 -0.74923545 -0.5195135 -0.15383518 0.12460738 0.09956466 0.39798826 -0.091396995 -0.21943757 0.12020653 -0.6672009 -0.052292727 0.06774509 -0.44341668 -0.7112591 0.3620581 0.8324237 -0.2568879 0.32469183 -1.0899532 -0.2148288 -0.84382725 -0.93549865 0.6969107 0.5224646 0.2671388 -0.06352895 0.93307734 -0.930177 -1.5035238 -0.13336198
order 0.5796979 -0.200511 0.14418456 0.52692205 0.20541634 0.69680315 -0.1135377 0.022499984 -0.49953455 -0.37892923 -0.8404833 -0.17681777 0.5113404 -0.67040634 0.24184468 -0.26174128 0.38704455 -0.32654294 0.21488893 -0.11280637 -0.60353017 0.06756212 -0.3803875 0.58694595 0.087020464 0.66868556 -1.101289 -0.755487 -0.3347539 -0.011325553 0.35227883 -0.20771417 0.7501316 -0.015211047 1.0958427 0.019008476 -0.71394026 -0.056512933 0.059701048 -0.008566621 1.1386787 -0.31816342 0.08596025 -0.50336295 0.15004699 -0.04924318 -0.35482123 -0.10637474 -0.20154026 0.16865598 0.16333015 0.12916274 0.31616166 0.26064208 -0.79917365 0.37940344 -0.07579452 -0.14552851 0.6281208 -0.045261238 0.122651644 0.3484044 0.18466794 -0.9854651 -0.5465754 0.7288133 0.14694658 0.1973391 0.06781142 -0.34345797 1.0294622 -0.43220732 0.044726085 0.33015323 0.51722103 0.36102912 -0.2712325 -0.1670254 -0.2079112 0.27657196 -0.21190521 -0.1566933 0.4112891 0.42454785 0.13987319 -0.18452196 0.06650622 0.15296596 0.096267566 -0.4479966 0.75120443 -0.5544858 -0.118964404 -0.28626817 -0.073197454 -0.39557913 0.45297295 -0.21049038 -0.68008006 -0.45435965
control -0.0801998 -0.37293935 -0.31406376 -0.5922507 -1.5143336 -1.2905611 -0.21912856 0.14799958 -0.76132905 -0.28194913 0.7907838 1.0642108 0.30435103 -0.08194422 1.0946192 -0.7073812 0.7468653 -0.6987744 -0.54467195 0.015068847 -0.07954795 0.4412265 0.8148832 -0.5075582 0.8155066 -1.6168501 1.286257 -0.3539857 -0.34108955 0.5753022 0.35837394 0.07639015 -0.59261876 -0.36837542 -1.0371965 0.45216054 -0.20999426 -0.034985725 0.7105003 -0.2787074 0.8743062 -0.55967814 0.23899505 0.67336655 0.018148609 -0.0045660026 -0.3303182 0.09852609 -0.38774425 0.19074051 -0.5967305 0.15316753 -0.9793073 1.2059829 0.62016094 -0.9518317 -0.19749555 0.7524304 0.02885557 1.0379133 1.0903606 1.3705995 -0.116276026 -0.6331812 0.5460731 -0.21406387 -0.41717532 1.0201235 -0.068010904 -0.8205229 0.088183925 -0.59291345 0.14617977 -0.20368795 -0.052180324 -0.6256119 0.81836754 0.47048214 0.16813374 0.09519566 -0.42372268 -1.5651731 0.16037475 0.5275327 1.4347754 -0.13452801 -1.3443823 -0.14126414 0.8489852 -0.89905417 0.50190824 0.54698867 -0.39559367 0.26887992 1.4793108 -0.18014067 -0.2074627 0.25963086 -1.1932689 -0.75638306
detection -0.7899455 -0.84284675 1.4654225 -0.21001638 0.67988634 -0.86797065 -0.5439048 -0.42938042 -1.287694 -0.036954246 0.08608307 -0.31016526 0.28698966 -0.59510267 0.1804072 -0.5429177 0.28317735 -0.5929646 0.69163656 0.1684374 -0.99207747 0.25568637 -1.0514237 -0.95237315 -1.101648 -1.6651291 -1.002254 -0.608369 -0.045240216 1.4065336 0.5454343 -1.2929069 -1.3044994 -0.24961917 -0.49600804 -0.2780945 -0.031726327 0.19990857 -0.67599666 -0.5633193 -0.29997373 -0.028360741 -0.08423585 0.21031137 -1.2896391 -0.77814674 -0.04743349 0.1667091 0.31765506 0.30905333 1.090562 -1.1711931 -0.04901568 0.28067318 -0.7260456 0.73684704 0.36106536 0.24278687 1.6652088 0.049884856 -0.9885491 -0.18492556 0.7018729 1.6042142 0.09758328 0.14021868 -0.27856 0.070027836 -1.47142 -0.5071833 -0.6978396 -0.60143936 -0.6961251 0.10848334 0.6802395 0.39559934 -0.109859 -0.1422173 0.30753276 0.26699948 -0.34475508 -1.0216079 0.73408 -1.9763768 -0.18661223 -0.45197573 -0.60304123 -0.052526582 0.28204346 -0.16784945 -0.20883486 -0.6491175 -0.60700226 1.1121466 0.3277417 0.7840242 -0.7881484 -0.34982246 -0.1068469 2.1728997
software 2.058786 -0.26072338 0.93940884 -0.4634139 -0.5498849 -0.22262892 -0.4216766 -1.300779 1.558997 -0.61092293 -0.08874662 0.15552042 0.9888507 -0.7379238 -0.49575436 -1.3694539 0.48514402 0.79900354 0.9335309 -1.0942667 -1.1125647 0.18591006 0.5432902 1.0960233 0.52422166 0.8504253 1.3896214 -0.14792024 -0.25935215 -0.8054802 -0.7862744 0.84830594 0.15744567 -0.050260767 -0.54075915 -0.28895646 1.204711 -0.2986618 -0.2879565 0.38378075 0.1453731 0.36256567 -1.0473716 -0.051929478 0.15683174 -0.4021518 0.40172005 1.0062727 0.6751303 0.6591265 0.93151206 0.7796199 0.53517985 -0.3254707 0.8548329 0.37033555 -0.2420135 -0.5452757 1.362291 0.20688243 -0.25361103 -0.61203855 -0.44977835 -0.34733683 -1.4300315 -0.074159116 0.610405 -0.3391084 -0.20933169 1.0050161 0.18693104 -0.55197614 0.257308 -0.3834335 -0.81189895 -0.9949188 -0.11997652 -0.17861855 0.2771065 -0.60515654 0.21554267 -0.10196995 -0.7692112 -0.15561064 1.216676 0.7377052 -0.8832587 1.0161357 -0.3357833 0.11844208 0.09931587 0.20118362 0.15105669 -0.009082409 0.38025722 -0.7755611 -0.21214716 -0.36645052 -0.5862803 -0.04955657
solution 1.0221124 0.32710412 0.018971805 0.29382345 -0.1741412 0.81845814 -0.0222095 0.044452477 0.23010327 -0.27346033 -0.46931288 0.105016254 0.32763493 -0.73172516 -0.36600453 0.5417936 -0.049012247 0.33994132 0.5937018 0.22106971 -0.19946499 -0.31630865 0.0075063286 -0.6440128 -0.6726569 -0.041257903 -0.1892331 -0.12050698 -0.0156933 -0.04779864 0.3854688 0.257432 -0.40659672 -0.4768488 0.040463123 -0.31492543 0.41450456 -0.35389632 -0.020101435 -0.15142232 -0.29822308 -0.17090686 -0.4774146 -0.21459542 -0.40035254 0.18928921 0.26831606 -0.5284097 -1.0821377 0.34236306 -0.54448205 0.79305494 -0.5331221 -0.53453267 -0.4026042 -0.25042284 -0.11383636 -0.11913891 -0.1445307 0.04998219 0.35816014 1.1617597 0.4487273 -0.97848505 0.26732746 -0.44866803 0.24494654 -0.39370987 0.3410639 0.3093613 -0.46849206 -0.1952492 -0.7480008 -0.35865477 -0.048333135 -0.16912669 -0.38797364 0.10059496 0.0322168 0.07293918 -0.5270904 0.09303215 0.042076033 0.24352908 0.24374713 0.16044277 -0.8034185 0.20732085 -0.30221406 -0.31094745 0.86408156 0.18933207 -0.54008096 -0.40339726 -0.67605424 -0.4534461 0.015098879 0.54984826 -0.06437078 0.075564064
use 0.26005897 -0.4543915 0.73453605 -0.16432428 0.10317838 -0.37458345 0.34038273 0.6642318 0.6338421 -0.81336623 0.4932686 -0.7444396 0.6310913 -0.15427154 -0.54153013 -0.3623635 -0.010317791 -0.06622821 0.14043793 -0.43263054 -0.22990653 0.49758485 0.32618636 0.1706348 0.37016943 0.21047032 -0.15003732 0.36341378 0.11753054 -0.37015527 0.2596777 -0.12694803 -0.6353473 0.24811791 0.0110583715 -0.6327314 0.1498433 -0.49923095 0.7550717 0.7061517 0.51837015 0.86380476 -0.5686095 0.70633847 -0.119675614 -0.31613478 -0.22762115 -0.07589064 0.037994727 -0.35547668 -0.14402327 0.10489646 -0.47700673 -0.4648549 0.2390189 0.42466486 -0.45447534 -0.26051217 -0.024994485 0.5138506 0.10733397 0.21595626 -0.48167536 -0.78403026 0.29365298 0.19627033 -0.34242728 -0.17956677 0.0031009796 0.63280106 -0.17843743 0.37710992 -0.049300328 -0.17064992 -0.06789541 0.27609524 -0.734302 0.46771497 0.25696632 -0.2760869 0.21264032 0.16367437 0.55908394 0.015011075 -0.17504647 0.39527336 -0.15830043 -0.16411576 0.38314325 -0.08586629 0.040102966 0.4355783 -0.16503516 -0.2797675 -0.41115153 -0.75571865 0.1593103 -0.1577668 0.5318632 0.14862403
design 0.8606439 -0.23357181 -0.15227404 0.16999543 -0.85219127 -0.2242255 -0.007881586 -0.28780127 0.38447425 0.34108996 0.041731223 -0.097408794 0.6718494 -0.66000175 -0.9547336 -0.4866562 -0.4514979 -0.060619485 -0.063894704 -0.17597404 -0.23044614 0.42519855 0.76308745 0.6405994 -0.37941316 0.17021953 0.21482635 0.43700132 0.14725292 0.7419788 -0.10639776 1.0330755 -0.4160209 0.1800269 -0.66742915 0.14809924 0.8137727 0.4256197 0.5657731 0.32717338 -0.1751941 -0.09445369 -0.45362154 0.5061489 -0.053722892 0.35096097 -0.15511638 0.3423104 1.0321012 -0.66626245 0.44039583 0.34159887 -0.6756741 0.20822245 0.25160232 -0.26707518 -0.29260275 -0.19569515 -0.3950294 -0.22677194 -0.8309591 0.5768459 0.9223445 -0.72648656 -0.093891025 0.48182082 0.28950888 -0.59319067 -0.107960425 -0.14080225 -0.2620965 0.05106503 -0.027256576 -0.64982903 -0.3308991 0.5056533 -0.26802868 0.3735114 -0.15718804 -0.11325215 0.4571731 -1.2925558 -0.1220746 -0.53667915 0.5822147 -0.09948625 -0.58249 -0.34075844 0.37448075 0.58837426 0.2609977 0.117140815 -0.55244005 -0.3717984 -0.02450257 -0.33486167 -0.5193881 -0.48071748 -0.1677421 -0.043201078
simulation 0.7412336 0.043256003 0.13286613 -0.24884647 -0.43452886 0.6422172 1.1547952 -1.0321438 0.9897339 -0.091681376 0.45935142 0.4912584 -0.87929875 -0.17038171 0.01173889 -0.46380883 -0.6117939 -0.116466604 -1.1768363 0.82050896 0.11567958 -0.6734543 0.2969499 -0.26100206 0.30304202 -0.9364694 0.095636785 0.71485686 0.1302367 -1.2050489 -0.69786686 1.1461341 0.9973493 0.41625676 0.01057172 1.4487455 1.6415571 -0.10782669 -0.6977442 0.38680607 0.21707974 0.24116658 0.41307238 0.38297018 0.32544786 0.3835898 -0.06514463 -0.05863983 -0.37688154 -0.42151403 0.009967357 0.046020146 -0.51833844 -0.99521136 -0.58453137 0.21731322 -0.5361692 -0.20881887 0.51035076 -0.4706575 0.4274129 -0.012624875 0.10231824 -0.29180554 -0.14450842 -0.536306 0.20632987 -0.1113881 1.0651397 -0.4148378 1.5862055 1.0440135 -0.6034166 0.39477307 0.05989924 0.5815298 0.4223436 -0.039579514 0.026461944 0.38717514 0.88786125 -0.37322167 -1.8503481 -1.1825684 -0.17866857 0.264919 -0.38656712 -0.23629953 -0.25924537 -0.7791147 0.23143305 -0.93373054 -1.2719761 0.4435222 -0.7450736 -0.8897598 0.4433567 -0.37186465 -0.27861205 0.77912384
storage 1.02948 -0.2922848 -0.78872395 -0.26169732 0.16476037 0.7187778 -0.027069349 0.5998647 1.6493337 -0.35589188 -0.22268426 0.8590145 -0.050347023 -0.37457344 0.028892076 -0.5061883 -0.88896686 -1.0685047 -0.3148436 -1.2632067 -0.4899293 -0.15698653 -0.9212389 0.8151041 -0.25978753 -0.04921695 0.19377436 -0.31830958 0.36744735 0.682241 -0.15444355 -0.7589254 0.07483256 -1.030551 0.9301564 -0.3514981 -0.008420939 0.11273563 0.40934885 -1.4248991 -0.09078948 -1.088219 -0.62200475 -1.0898067 0.63205963 0.013227824 -0.26223537 0.6105085 -0.86706823 -1.3716942 -0.26203933 0.19880182 0.34526563 1.134591 0.02952732 -0.28502017 -0.5029321 -1.3341863 -0.92687523 1.0031953 -0.07510621 0.29712266 -0.48988426 -0.4416935 -0.44790795 0.6315891 -0.14934477 -0.3011374 1.390532 -0.4583199 -1.1581144 -0.7521073 0.20958662 0.61164784 -0.6559238 -1.0393122 -0.8146232 0.8977696 -0.5181273 -0.2646751 0.4381769 0.009080783 0.8111176 0.8825568 0.17029437 1.142696 -0.21265641 -0.32453734 -0.29603872 0.59575796 -0.31413558 1.3211017 -0.6799486 -0.6106427 0.8857409 -0.5317267 0.1850528 1.2137308 -0.5655313 -1.958084
efficiency 0.12813023 0.81071764 0.11543058 0.42687538 0.044148482 -0.09326137 0.49921453 -0.058829628 -0.75344825 0.0713406 -2.055501 1.3726472 -0.3428673 -0.37149382 1.0506692 1.4512573 -0.1181279 0.16790402 0.07308105 0.64425117 0.19363903 0.41350564 -0.12815712 0.89823234 0.90975744 -0.9951147 -0.49300116 -0.8354606 0.41118687 0.58526653 0.44222414 0.6902254 0.6878306 0.14017032 0.53784305 1.2743188 0.21776861 0.62792 -0.098263815 0.1614953 -0.13920909 -0.24617457 -0.078903556 0.3725619 0.7983278 0.4607968 -1.033727 -0.4017875 -0.8944788 -0.83708465 -0.40840372 0.020968182 -0.49470723 -0.30396807 -0.39348322 0.46184018 -1.0093219 0.17007272 0.16086839 -0.19029416 -0.2780765 -0.41959596 1.4262668 0.851727 -0.27405578 -0.032743312 0.5911952 0.15581943 0.3569024 0.3547712 0.047472116 0.83500135 0.35215285 0.38410845 -0.06863849 0.028268907 -0.27921724 0.75480056 -0.7599856 0.43193054 -0.23939037 0.0037914712 0.089332104 -0.51337904 0.17093351 0.19797698 0.18065946 -0.06796427 -0.08503276 -0.18573883 -0.045427334 -0.21941227 -0.80888397 0.12409365 -0.6535962 -0.9440816 0.86156297 -0.15684178 -0.07766809 -0.39521116
cost 0.19657342 -0.10636993 -0.68200576 0.86292744 0.30231315 0.31883827 -0.23558025 -0.024244184 0.36936784 -0.746744 -0.8778737 1.3331178 -0.41254666 -0.35280472 -0.029830845 1.8563986 -0.75796986 0.72890615 -0.06251347 0.66440076 0.20569836 -0.66772395 0.15843913 0.008790357 -0.28987417 -0.6341859 -0.6355433 0.45477 -0.09757725 -0.34412777 -0.9345678 0.8198461 1.7691935 0.10688663 0.41510868 1.9698579 -0.1593809 -0.3062716 0.42481866 -0.049332257 0.18792659 0.2167256 -0.25281733 -0.23772295 0.2257218 -0.18138854 -0.02446644 -0.58896476 -1.2004973 0.016569143 -0.6186352 0.5663913 0.69410574 -0.253087 -0.96353436 1.0470542 -0.71211535 0.16325459 -0.44105452 0.47271135 0.2739339 -0.51094365 0.40185195 0.6908417 1.1839031 -0.43694192 0.73051614 0.2825184 0.044269975 0.4178293 -0.66884345 -0.5957202 0.777717 0.70782775 0.3251963 -0.8641454 0.7661795 0.41665924 -0.39021915 -0.41224417 -0.017994052 -0.45258856 -0.4153615 0.12627257 0.17151916 0.72897345 0.24602403 -0.40191147 0.11365959 -0.17129658 1.2165884 -0.031311937 0.4625592 0.3337458 -0.40266877 -0.47618857 1.3869526 0.0660037 -0.43448713 -1.3031888
work 0.17289001 -0.19925858 0.3000524 -0.09825115 -0.4768182 0.3336263 -0.59247345 0.29370204 -0.44984955 -0.15035906 0.37197196 -0.13696876 0.026858607 -0.62509835 -0.4078509 -0.35290825 -0.33174095 0.2670188 0.27708003 0.077590965 -0.29777244 -0.32769486 0.066577785 -0.073032536 0.63603544 -0.48840272 0.19620328 0.4729993 -0.015494925 0.18358804 0.29642195 0.073847346 0.21503565 0.7499315 0.1463982 0.18370764 0.68785274 -0.27495667 0.48507574 -0.6422114 0.14445098 0.2628178 -0.02480404 0.1880105 -0.16952421 -0.7801178 0.1917581 -0.35575974 -0.08353673 -0.5890097 0.16744924 0.22934048 0.41825208 0.07714767 -0.20132132 -0.2988286 0.11086987 0.39350224 -0.03697998 -0.631718 -0.31165135 0.41685724 0.61481816 -0.013104274 0.09669581 0.34503457 0.17809625 -0.17341939 -0.98524225 1.116 -0.60813254 -0.4451416 0.17336462 -0.6767938 0.45686206 0.905004 0.03487689 -0.38151017 0.0047627464 0.27578732 0.40028954 0.24155694 -0.36226514 -0.086299516 0.030777207 -0.20074904 -0.49434933 -0.4265795 -0.607604 0.0068625505 0.35280487 -0.49901962 0.46236596 0.53083515 -0.7484224 -0.43938714 -0.6945252 -0.25473925 0.2005365 0.73351014
task -0.42234445 -0.06402837 -0.52033776 0.12805729 -0.023593143 1.1118641 -0.048883334 0.19065039 0.3356616 -0.3042079 0.096890405 0.4530352 -0.6503043 1.711198 -0.26167434 0.24651805 -0.2750836 0.5596706 0.35690865 0.5511066 -0.83185107 0.59864306 -0.6222681 -0.3776492 -0.36157173 0.4277961 0.47787732 0.2471692 -0.41503826 0.78589994 -0.81588346 -0.7519461 1.2005856 0.92573106 0.81967926 -0.8854379 -0.038192626 0.004198034 0.13515349 -0.095628984 0.59630114 0.28944057 1.081036 -1.1183456 0.80641335 -0.8875898 -0.8375569 -0.35037798 -0.30639073 1.3096393 -0.24080049 -0.8355482 0.15273073 -0.35061887 -0.9154117 0.12252142 0.16481237 -0.391303 -0.7125298 0.7851847 0.8631458 0.75857985 1.7840984 0.58945996 0.7247857 -0.28513828 0.97324187 -0.020123208 -0.79063547 -0.43822634 -0.3102732 -0.40937528 0.45112833 -0.06730178 -0.2337936 0.4368046 0.025861556 -0.262098 -0.7481673 0.1691787 -0.09889576 -0.41989565 -0.24296424 0.9205432 -0.50084144 -0.17290406 -0.26049212 0.04133963 -0.9188902 0.6316981 0.56914574 -1.244628 1.069471 0.38955417 -0.30218872 0.71673304 0.37460792 -0.1980125 -0.07326008 0.55660987
development 1.0352483 0.68758893 1.590866 -0.87498415 -1.6376363 -0.87448645 -0.18027566 0.31885558 1.2970098 -0.3345053 0.32751915 -0.9272994 0.96573615 -0.69322485 -0.25240165 -1.3850724 -0.03547167 0.33537176 0.13005106 0.09273365 -0.71320385 1.2134085 0.8465887 0.5537051 0.15532042 0.90128416 0.28698066 -0.23612499 0.0033657537 -0.675963 0.26142594 0.9892623 -0.13372785 -0.48409706 -0.74268395 0.269634 0.17222491 0.24011049 -0.47934106 0.5774595 0.18780574 -0.13071817 -0.13011777 0.95547724 0.42623246 -0.3230034 0.19347896 0.20531118 1.1856011 -0.23989622 0.564426 -0.29245356 0.54143643 0.51933336 0.32738993 -0.09162083 -0.59862816 -0.5948632 1.1826278 -0.033102196 -1.5916235 0.050437573 -0.3252975 -0.13334556 -0.9648858 -0.1335835 0.0765481 -0.30440676 0.5902939 0.8408229 -0.5000384 -0.11666163 -0.38294178 -0.30681473 -1.5025756 0.69407517 -0.023830486 -0.028526947 -0.8099462 -0.5660462 0.5437053 0.14085773 -0.6153172 0.44366744 -0.110538185 -0.4792606 -0.52370536 -0.2465863 -1.1773309 1.2825291 0.11022839 0.74841624 1.1237333 -1.0868164 -0.031821217 -0.3559055 -0.74315745 0.2692832 0.6235962 -0.28538114
support 0.45999756 -0.4850171 0.16883416 0.4140394 -0.80852515 0.2510106 -0.56122327 0.01952884 0.48700413 -0.10644261 0.42801955 -0.2735725 0.8477287 -0.21399619 0.57703215 -0.72426903 0.18069136 -0.20761506 0.82389313 -2.0165474 -0.62269354 0.8729073 -0.66719586 1.0210057 1.1284891 -0.69642174 1.1652917 0.51010764 -0.52430564 -0.7125622 0.30402085 0.3858644 -0.017167957 0.45153895 -0.3613198 -0.92384934 0.31245556 0.05270533 0.6613535 0.82712686 -0.868548 0.7360047 0.35391653 -0.23649283 0.51052415 -0.5191054 0.59513545 0.107195765 1.3210953 0.11777629 0.23679379 0.21001777 0.482951 -0.49661505 0.30425838 -0.2837277 0.12449337 0.20665005 0.43786755 -0.3482482 -1.3106595 0.7507495 0.83483917 -0.7684757 -0.8323125 0.0006837088 0.64598507 0.5023804 0.31919515 0.5977586 -0.4433449 -0.63838106 0.14897762 0.2312764 -0.7659088 0.7129069 1.1822671 0.14025547 0.07691167 -0.33975586 -0.33624724 1.1363009 0.39004248 -0.14880991 0.5530305 -0.26336482 0.80123144 0.2029693 -0.90188926 -0.29320148 -1.7226605 -0.12756322 0.04615452 0.4160221 0.47898144 0.19324367 0.65096325 -0.40614104 0.5099012 -0.7363218
quality -0.114689656 1.0948799 -0.6070134 0.6849041 -0.52807736 1.0010693 0.62577325 -0.06345995 -0.8278583 -1.0066954 0.12054648 -0.7664388 -0.0042138984 -0.13282728 0.9409463 1.2154835 0.3858784 0.64737576 1.012349 -0.4262027 0.8040764 -0.49608958 -0.3899232 0.6700136 -1.2246093 0.12122054 0.4824299 -0.34931633 0.86237884 -0.6388189 1.0481889 0.2766193 0.27685487 1.5447555 0.3230982 0.63709736 0.10036083 0.44994885 -0.6458642 -1.1721362 -0.23679997 0.0062540174 0.63259107 -0.08814603 1.0126414 0.010674672 -0.43324026 1.1015292 0.02656186 -0.120163925 -0.18008639 -1.1480272 -0.33866408 0.769917 -0.4981959 -0.30166417 -0.3660014 -0.26205656 0.36676362 1.107346 0.4443611 -0.8331528 -0.11947142 -0.049907845 -1.1772597 0.6963722 0.6273249 -0.14420982 0.44879586 0.3229724 0.2748554 -0.18660596 0.5614738 1.9551429 0.5643932 0.3657203 -0.15906739 -0.1459503 -0.19700617 -1.2801785 0.009277863 -0.013095129 1.1350163 -0.7544558 0.1603972 1.2110834 -0.4019817 -0.17340569 0.32057035 0.30704397 0.29199585 0.3027064 1.4958346 0.29181808 0.7206458 1.0466152 0.39531457 0.4380552 1.4577273 0.6864026
privacy -0.51918083 1.764465 0.19906276 -0.066902064 -0.22468297 -0.92662823 -0.22067225 0.17629698 -2.0773952 -1.2858335 -0.36618233 -2.1452432 0.009492593 -0.88294584 -0.06693216 0.58248717 0.4728076 -0.024840526 -0.5447744 -0.011962312 -0.35873884 -0.13635507 -0.81127983 0.39745775 -0.16112825 1.0370897 0.14070527 -1.691895 -1.3300102 1.2931424 -0.7085205 -1.2987964 -0.67587173 -1.2782276 2.111549 -0.3954226 0.13234603 -0.031636585 0.4652473 -0.30155686 0.7729333 -1.916555 0.7632128 1.6026753 -0.37105185 -0.19946767 -0.4045235 -1.1878058 -0.19673 -0.71564215 0.8545689 1.3679861 -0.59313875 0.29651114 1.4250855 -0.6204101 0.3572963 0.8551839 -0.63483375 0.83456284 0.88744724 0.62482744 0.9244398 -0.299919 0.49303555 0.071067475 0.19133501 -0.6269607 0.00016931779 0.27043033 -0.6654617 -0.4064516 0.42009786 0.5437658 0.9305951 0.8508506 -0.827928 1.1476783 -0.51166546 -1.0432253 -0.5373347 0.9336135 0.8836076 0.6708565 -0.24062866 -0.68163025 -0.16435936 -0.92833465 0.5368646 -0.04606152 -0.8640417 0.011129658 -1.2265098 0.023639979 0.80722404 -0.5795219 1.0883166 2.108291 0.8579577 -1.1012857
technology 1.5247443 0.5982036 0.41586664 -0.6932274 0.6765632 -0.31263474 -0.46350253 0.6195557 -0.48240337 0.09709846 -0.1188388 -0.3663702 0.30492312 -0.509211 -0.6202119 -0.122018576 0.33390722 -1.2183086 -0.64584714 -1.2410988 -0.2277901 0.46222436 -0.9819065 0.47330257 0.10796724 0.956482 1.6418942 -0.5746518 0.103767626 -0.536766 0.787658 1.9722115 -0.74439543 0.21200801 0.2345453 -0.14500934 -0.47921148 0.65776134 0.50037134 -0.567707 0.97868544 0.64610845 0.28827652 0.5462582 -0.605534 0.9032104 0.15877503 -0.0424709 0.70468765 -0.7288232 -0.10094152 0.5656971 0.37943175 0.3346508 0.5391396 0.1295063 -1.3000029 -0.23010741 1.0804657 -0.4415953 -0.6299856 0.032844033 -0.26461607 -0.11702805 -0.48185125 0.111336924 0.102125354 -0.030454436 0.6052441 0.32981193 -0.8988135 -0.6012122 -0.5057193 0.4942836 -1.9933988 -0.3716708 0.256424 -0.54005486 -0.15468666 -0.4156848 0.42381293 0.9858573 -0.14920178 0.2926552 0.37516326 -1.0854533 -1.1201404 -0.42410734 1.0645529 0.83014166 0.09507367 0.83203685 -0.4826084 -0.4956222 0.3508335 -0.2450443 -0.3355101 0.12102297 0.18351968 -0.29830974
machine -0.7171328 0.91338134 0.42936075 -0.4373674 0.33771265 0.99622214 -0.770498 0.18327554 -0.1519854 0.3271969 -0.37833056 0.5762525 0.36418447 0.731852 -0.9709881 -0.6038101 0.47013137 -0.22048871 1.2314316 0.65445256 -0.5975302 0.7796878 -0.1930105 -1.0167359 1.026638 -0.3605445 -0.09287231 0.5986984 -0.84447265 0.029746287 0.06964687 -0.6880175 0.3505428 0.42682222 -0.49342507 0.14110345 -0.5380083 -0.588533 0.69802964 0.3985951 0.06909044 1.0384858 0.69826144 0.6341982 1.2970867 -1.5676907 0.49676618 1.1781336 0.63403535 0.20774966 -0.5019305 -0.5010471 -0.10803382 -0.30578923 0.55812633 0.34816626 -0.22296044 -0.2583656 0.19162753 -0.6995463 0.5092216 -0.8226019 -0.84944373 -0.11329169 0.1461821 -0.9495156 0.22520502 0.4679034 -0.45305777 -0.58179027 -0.3364056 0.5364202 0.13592668 -0.26707408 -0.44869623 -0.4950468 -0.08147709 -0.9773515 -0.06344739 0.17491129 0.022751546 -0.47794482 0.57422054 0.32739717 0.42752963 0.44895506 0.44853044 2.1642087 -1.4613929 0.6912859 1.6580553 -0.8006825 -1.3418316 0.49593288 0.4133659 -0.7164943 -0.30205756 -0.09842421 0.1601087 0.9341489
mechanism -0.4325033 -0.37318727 -0.9671837 1.460912 -0.035556503 0.016533945 -0.16230865 -0.8055288 -1.1702032 0.4257143 0.105780765 -0.060575053 -1.088395 0.5082801 0.9553789 0.519694 0.24299821 0.033209875 0.5710249 -0.9526756 0.31569704 0.6146364 0.43138468 -0.21170793 -0.18742281 -0.16977422 -0.022837663 -0.7329331 -1.0939413 0.73611283 -0.007854846 -0.7358873 0.3127461 0.651035 0.3766535 -0.38096756 -0.0018753337 -0.28753534 -0.36859375 1.099332 -0.013570021 -0.48646256 0.4401631 0.9775734 -0.6849626 0.6759558 -0.5549546 0.5197491 -0.49239296 0.19306546 -0.07088766 0.94422555 0.21521789 0.43683064 0.7839652 -0.1667525 -0.95238936 -0.37753692 -0.53039503 0.58895874 0.34096563 1.3417522 0.6844829 0.5408934 1.0424408 0.6995363 -0.0001558149 -0.59582645 -0.5298426 -0.86493057 0.6596736 0.33601847 0.26396245 -0.0081379395 1.3327014 -0.2536367 -0.36728156 -0.5541293 -0.069041945 -0.67906225 -0.24026975 -1.3390616 0.45820376 -0.11602677 0.90735036 -0.72089136 -0.44064042 0.017051866 0.07005352 1.1265792 0.5163249 0.12509109 -0.79389 -0.074208476 1.04436 0.12693244 0.27494907 1.6139488 -1.1415871 -1.2123705
power -0.22685444 0.14313999 -0.36825532 1.3251082 -0.14514835 0.62787956 -1.3180887 0.03876011 0.10621772 -1.455562 -0.9169443 1.9727757 -0.27044904 0.9540475 -0.5167907 0.55628246 0.5805575 0.5777023 0.062361117 1.1453635 -0.3017874 -0.6402172 0.5137013 -0.044960782 1.1277289 0.13966477 0.12055737 0.11877147 -0.7635156 0.28522018 -0.25889105 0.58133024 -0.20294335 0.6066329 -0.08049767 1.9521356 -0.20753701 -0.7890109 0.7698565 -1.1388984 1.1301612 -0.20056961 -0.56020737 -0.010019513 -0.50689465 0.28371996 -0.0027792407 -0.31328425 -0.50505966 -2.2273984 0.5596952 0.3929922 1.2029498 0.87898064 0.028016202 -0.3156008 0.10530335 0.022253836 -0.78203183 0.66499937 0.969176 -0.6308397 0.87387687 1.4675233 -0.23728389 -0.24447815 -0.49569803 -0.6253253 1.0181838 0.011615209 -0.56784576 -0.36138076 -0.002913014 -0.14362602 -1.3128036 -0.63646585 0.32179368 0.7647371 0.19539948 1.2112254 0.48893976 0.9295708 -0.10806793 0.52232856 0.5178839 2.2967813 0.4833634 0.41474342 0.42028242 -0.48501602 0.13822904 1.3151263 -0.20633301 -0.6016033 0.53634226 -0.09045637 0.90222615 -0.974582 -0.09771517 0.14686583
consumption 0.79584 0.3205359 -0.56182456 0.67631197 0.36868182 0.8320556 -0.9929961 -0.3395613 0.5655397 -1.7232661 -1.2381848 2.4381018 -0.60412884 2.7933204 0.67640245 1.8163474 -0.7800344 1.2967439 -0.48550203 1.5278051 1.537406 -0.28490734 1.0755208 0.03539511 -0.4051596 -1.6036253 -0.3766895 -0.7590792 -0.4811 1.2310303 -0.59853673 0.49053106 0.51918834 0.28704935 1.4021547 1.2768269 0.70507437 0.32688615 1.195789 -1.9314222 1.1641085 0.13993096 -0.8207062 0.3533202 0.4401151 1.1901783 -1.1840124 -0.23008437 -1.8469355 -1.0146838 -0.13354518 0.51249003 0.76467186 0.18450455 -1.07114 0.87539136 -0.75415397 0.6888256 0.2930916 0.5639126 -0.8801422 -1.8062325 1.5790089 1.1453371 -0.19463146 0.5400362 0.6808752 -0.22120878 0.5590404 -0.6593847 -0.70355356 0.761984 -0.1131759 0.5641307 -0.14516212 -1.5219413 0.23496303 -0.038908456 -0.8997285 0.8888619 -0.42260617 -0.042085547 -0.8316947 -0.11985698 -0.7012682 1.2169768 -0.85962164 0.36089805 -0.06887517 0.6840954 -0.8189601 0.45896295 -0.24620797 -0.56700826 -0.69664735 -0.101868026 1.5846348 -0.098788194 2.0186222 -0.39545193
implementation 0.71784216 -0.056973185 0.32072413 -0.9905047 -0.7651612 -1.0149553 0.84827274 -0.34951988 1.3851999 -0.17205709 -0.8895226 0.4461493 0.31845886 -1.064562 -0.07426105 -1.5532987 -0.3248771 -0.7584217 0.87077606 0.20281938 0.8598135 0.99842656 1.0090141 1.0886368 -0.70550495 -0.5641028 -0.28084695 0.1349936 0.23969875 -0.4745353 -0.38567334 0.42832953 0.29241663 -0.3146193 -0.7974305 1.0523641 0.18799455 -0.7333239 0.2676221 0.5055851 -0.36983037 0.296032 -1.1337023 0.22254442 -0.3810561 -0.17937268 -0.09987847 -0.44557467 0.5585795 -1.1687263 -0.105273806 0.13594422 -0.95637214 0.7488949 0.6006367 -0.58289707 -0.86699396 0.0482124 -0.2740097 0.047430646 0.04117651 1.114802 -0.026165258 -1.142383 0.12678735 0.17816375 0.76873726 0.4302554 0.24709894 0.5800686 0.5885225 -0.31029427 -0.007221596 0.074932285 -0.49673963 1.4155408 0.11576039 0.29608148 -0.8191626 -0.036680035 1.0902504 0.0101560755 -0.8402229 -0.32985502 0.88111275 -0.05640707 -0.5258152 0.6287416 -0.7693605 0.8760068 0.2547555 -0.48717523 -0.8423696 0.4277357 -0.6212398 -0.0054980065 0.28860718 -0.5766681 -0.41142043 -0.13559337
optimization -0.17461723 0.42505136 0.44579333 0.85588336 -0.85194653 1.6115224 0.11197073 0.5904487 0.29399505 -0.7099577 -0.33292633 0.23793864 0.11200898 -0.39882138 0.26760322 1.0695778 -0.03749524 0.024821792 1.3464607 0.9422578 1.6921284 -0.4011879 -0.39983737 -0.12009195 -1.324932 0.17540589 -0.0899747 1.0044134 -1.4665205 0.17670424 0.18389943 0.27073357 -0.013375985 -0.32859027 0.19216794 -0.02446713 1.1995358 0.47336555 -0.036844894 -0.12778793 0.36178216 -0.27676097 -0.408671 0.480705 1.3356421 0.42287296 0.09623451 -0.5501032 -1.0423925 1.2359931 -1.1208409 0.17179497 0.92676234 -0.55064833 -1.1907523 0.018093884 0.51734215 0.04340419 0.16309771 0.99859506 0.41615993 0.69560945 0.22836193 -0.23728932 0.50139236 -1.6698668 -0.16794139 0.123443685 -0.5525627 -0.508226 -0.042501558 0.3257325 -0.27418303 -1.0446475 -0.1981119 -0.047292694 -0.16464648 -0.15359183 0.22193794 0.6915878 -0.024332037 -0.062368084 -1.2643228 -0.36488622 -0.08623542 0.23214854 0.09557335 0.09681228 0.617283 -0.44955993 0.79433995 -0.5292351 1.0228851 -0.82460815 -0.46020272 -0.20535111 0.7025551 -1.370986 0.8531069 0.6114093
evaluation -0.25146246 -0.19545388 0.46438056 0.5425764 -0.2385807 -0.25050285 1.3316382 -0.75057715 -0.5973188 0.0637949 -0.32457098 -1.2147205 0.40288356 -0.9064286 -0.1379304 0.027209302 -0.5983533 0.12697256 -0.23486641 0.7103726 0.27855706 0.15666237 0.13184163 0.9183566 0.11780482 -0.986197 -0.5087391 0.09680683 0.3833287 -0.20540899 0.61253446 -0.99022174 -0.2726072 -0.30266955 -0.91103876 0.8687035 0.89597476 -0.55118495 -0.31409308 0.8726849 -0.20423327 -0.34598738 0.013682451 0.52162576 0.42854795 -0.19793774 -0.31963184 0.9381348 -0.46254203 -0.56992686 -0.20733145 -0.24666871 -1.3334529 -0.76651084 -0.65279007 -0.021209164 -0.058487967 -0.0017114421 -0.67668355 0.21041308 -0.6452522 -0.17543602 0.22490565 0.79708564 1.058299 -0.2854613 -0.13578229 -0.11386445 0.301995 0.31758276 0.32520577 0.21472163 0.589855 1.1816305 0.09192917 0.13548964 -0.02350642 0.038306132 -0.21913107 -0.6879122 0.41656306 -0.14459433 -0.66970235 -1.1033503 0.37341177 0.70209086 0.21449174 0.257845 0.4706511 0.23928271 -0.9900413 -0.2638839 -0.4818856 -0.28053904 -0.45552075 -0.48923448 -0.19424045 0.7377168 -0.37166077 0.6184844
infrastructure 1.2297175 0.24937949 -0.66423476 0.32097998 -1.009842 -1.1099211 -0.55474204 0.5567401 0.8983778 -0.3774078 0.3102542 0.5246223 0.15085581 -0.06874398 0.72121984 -0.3529866 0.3789658 0.36934197 -0.35064977 0.11969794 -0.3209737 -0.49531463 -0.94141704 0.03764743 0.044060353 0.009432482 1.55241 -1.0225636 0.58734536 -1.1471722 -0.7082942 0.34760144 -0.34088233 0.45154002 -0.41698793 -0.15425333 0.25416172 0.4656966 0.32435733 -0.13592952 0.61096936 0.89078146 -0.11391425 -0.44852564 -0.6885593 -0.039363034 -0.09255574 -0.047434323 -0.77175105 -0.80278283 0.522764 0.3127842 1.1916306 0.52800816 0.14823367 -0.3196002 -0.10385473 -0.56307554 -0.23704593 -0.92480695 -0.22730258 -0.58599776 -0.8883361 -0.32817188 -0.2344198 -0.55997455 0.701014 -0.7315999 0.25675634 0.8953811 0.7042224 -1.5849286 1.0585332 0.8251827 0.18858309 -0.25502643 1.2013382 1.4702312 -0.3072521 -2.084487 0.36910054 -0.16181934 -1.0479807 0.02539714 -0.0108851 0.288528 -0.81423163 0.9295909 -0.15167663 0.35323024 -1.1719788 0.13138148 0.34090966 -0.6230401 -0.12627639 -1.1202523 0.20121321 0.32128304 -0.46996263 0.19539897
study 0.6655548 -0.8814141 0.35503572 0.09673616 -1.2608752 1.0234941 0.11767353 -0.64730924 -0.05134787 -0.44780287 -0.03678126 -0.7304228 -0.39632255 0.6557093 -0.4162885 -0.9413492 -0.69556314 0.05522172 0.953224 1.0866252 0.30905804 0.347432 -0.3318665 -0.67583793 -0.6114662 -1.7562068 -0.18842165 0.20473067 0.6198976 -0.63767934 0.50241596 -1.0262225 -1.052153 -0.21182266 0.07707823 -0.16037013 -0.67460144 -1.4283489 0.990958 -0.1306323 0.01652447 0.17942606 -0.40269968 1.1268656 0.0051753977 -0.6217296 -0.428452 0.7190575 1.2784709 -0.37085563 0.13035324 0.22756429 0.27454022 -0.5005607 -0.7553734 0.5086054 -0.14844517 -1.3928791 -0.06161697 -0.6343935 0.14081149 0.1116362 -0.40259343 -0.06207933 1.3824263 0.92589146 -0.20128997 -0.70169735 -0.30712655 -0.009306414 0.57350576 0.2570872 0.059565444 -0.5605289 -0.75467837 0.7869958 0.17082992 -0.040238366 -0.09433912 0.2374413 -0.6859923 0.41715318 -0.7882978 -1.1389946 -0.22617526 0.438213 -0.2784033 -1.5031173 -0.5366525 -0.03275487 -0.3911143 0.13481635 0.9295783 -0.40481025 -0.8339093 -0.62703514 0.038717825 -0.4383696 0.008093075 0.4175913
traffic -1.171775 -0.9242121 0.89138854 -1.0939776 -0.60141975 0.31164715 1.0470779 -0.16771998 -1.2612903 -0.7454709 0.19801366 -0.12830906 -0.964746 0.7219293 -0.64119565 0.780742 0.47076106 0.38123944 -0.23982249 0.807792 0.80399257 -0.18242495 -0.5832534 -0.6066475 1.851382 -0.9157975 -0.13780616 0.73648113 -0.45166904 0.3136792 0.7400714 1.239397 -0.12249036 0.12716939 -0.47412446 0.05068405 -1.10997 1.1060659 -0.7548876 -0.2539453 0.2922993 -0.3778312 1.0998328 0.42179534 -0.78349185 -0.3009116 0.6065399 -0.45997 0.51897323 -0.2070244 -0.24729861 0.11743543 0.3896613 0.90153223 -2.4491832 -0.19890103 -0.60717684 -0.5901954 -1.4621582 -1.5852609 0.19957037 -0.5684109 0.7373707 -0.0048705256 -0.82139874 -1.331168 -1.1845009 -0.44911644 -0.41954243 0.797391 1.7855096 -0.5602967 0.29045862 -0.41707224 -0.24202383 -0.2313348 0.8025983 0.5957596 0.2371447 0.26469964 -1.1765947 -0.50645566 0.41754043 -0.6544201 0.40162626 0.8462952 0.33156598 0.2763516 1.1604356 -1.4511865 -1.0485522 0.6642183 -1.0380121 0.4159772 1.0131074 0.47913623 0.23878777 1.9918997 -0.28528264 1.6927142
level -0.2164545 -0.97671485 -0.8716881 0.24318457 0.35226914 0.8503454 -0.41061378 -0.5104983 -0.9413857 -0.25154504 0.46234593 -1.1265599 0.34315285 -0.63486975 0.5380151 0.29671624 0.34847915 0.40202594 -0.25950983 -1.0424833 0.29158056 0.76365775 0.65683454 -0.29575732 -0.71439564 0.3345781 0.9884312 -0.28199968 -1.058581 1.1476753 0.36404547 -0.06955509 0.7383747 0.3507589 0.3050816 0.7808766 0.34796393 -1.09905 -0.05948602 0.20928775 0.1521641 1.6073825 0.4689681 -0.72402287 -0.0018453348 0.52410406 -1.4503355 0.5777171 -0.21812944 -0.94489336 0.21183267 0.71408546 -0.19412892 -0.09851397 0.08736414 0.7297405 -0.29822648 2.0838122 -0.14646226 -0.59092444 0.6142977 -0.10890269 -0.53882825 -0.17032576 -0.26742712 -0.0950753 0.23147021 0.5257377 -0.41613945 -0.23483387 -0.19738846 -0.037587006 -0.75909394 0.038632058 0.5660121 -0.08880651 -0.64237046 -0.2714823 -0.65925574 -1.299177 -1.0478524 -0.7275063 -0.6322594 0.8382126 1.1227591 1.0751319 -1.1584728 -0.20655032 -0.1360309 0.23343578 -0.17570026 0.9932532 0.2212258 0.27973717 0.05815157 0.3723511 0.13586393 -0.7080203 0.21867514 0.09017583
accuracy 0.16545975 -0.11781607 -0.6149647 -0.50147015 1.1170928 0.8182719 1.1276387 0.6030545 -0.9305603 0.46055368 -1.2324842 -0.76291007 -1.2210969 0.028414218 -0.10133603 1.2182691 -0.18615723 1.3388135 0.25681856 0.4012926 -0.6150863 0.27732646 1.0405399 -0.25903958 0.97303325 -1.3243953 -2.3634758 -0.93311024 -0.054043725 0.1634456 0.88424003 -0.768226 0.7509221 -0.5526362 0.29921317 1.9622008 -0.38528147 0.3531059 -1.4725782 0.50198054 0.016365042 -0.91601187 0.017253539 0.8628981 0.028241705 -1.1008314 0.66368604 0.6676475 1.1160666 0.28253967 1.0480021 -0.9835934 -0.9575666 1.02373 0.3621425 0.30395848 0.8024731 -1.6147362 0.9973756 -0.6672333 0.18432106 -0.29302275 0.24002676 1.533666 0.039357968 -0.57875365 -0.5985284 1.3209864 0.30961546 -0.29041696 -0.8172072 0.17933472 0.06271957 1.6211973 0.81331426 0.7782643 0.046358388 -0.56908965 1.5596313 0.47439724 -1.5305151 0.06805841 0.46069083 -1.690053 -0.12927744 -0.10327668 1.0303605 -0.457599 -0.30767158 0.47569308 -0.36004508 0.35234854 0.3173131 0.7299665 -0.6255691 0.86256516 0.39833128 -0.7506227 0.15445472 1.5736312
image -1.0379905 -0.7468908 0.2473648 -1.330406 1.0972587 1.5376499 1.120928 0.056486253 -0.15864752 -0.093078345 0.37661567 -0.7305649 0.7946349 -1.6306162 -0.23534845 0.20571259 0.6766425 -1.1800901 0.21859282 -0.15706104 0.20141757 0.6621669 -1.7622027 0.13318592 -0.22819602 -0.88781404 -0.32027662 -1.8467804 0.38782126 0.9953299 0.59241295 -0.031431064 -1.3883209 0.032740347 -0.25913793 0.3357544 -1.1890479 0.3638083 -0.47286698 -0.3049988 -1.3497467 0.39358994 0.5990228 -0.12045638 0.76476216 -0.97786385 0.487164 0.7572425 0.45243862 -0.68883145 1.2781599 -2.1615136 0.69707024 0.818772 0.57495004 0.4132901 -0.37357986 0.39254627 0.35388577 0.9772023 0.6902342 -0.11435669 0.12542449 -0.22560126 0.45106462 -0.39289257 -0.13246053 -0.5273715 0.9587498 0.2561897 -1.1135387 0.23073392 1.3803432 -0.8426622 -0.49139103 -2.1301398 -1.9197938 -0.65302813 2.3417392 0.58872944 0.89694655 0.6203242 1.3036326 0.7764522 -0.25689214 -0.9383263 1.3637048 -0.4510646 1.1114403 1.1741382 0.57731944 -1.4787409 0.7243707 -0.041974854 -0.20573881 0.05572872 -1.5675715 -1.5161874 -0.5955433 -0.3507859
prediction -1.1696596 0.26563284 1.1833253 -0.28149828 0.43869805 0.7523875 -0.0287406 0.3094535 -1.9670658 -1.0435908 -0.00948384 1.0363332 0.15902698 1.5495211 -0.8869013 0.31634152 1.0147411 0.16224894 0.74509966 1.5768117 0.6130083 0.13229476 -0.47547522 -0.8639607 1.0636829 -0.6202533 -0.55948275 0.5476468 0.8630358 -0.30900097 0.58366203 -0.668855 0.42393255 0.89891297 -0.15198256 0.29540485 0.6497645 0.36490688 -0.98681134 -0.30116808 -0.47119054 0.6090393 1.5308601 1.3702998 0.4208746 -0.3888448 0.9757498 0.96722037 0.13686936 -0.8083515 0.22937241 -0.7211241 -0.01739353 0.4305278 0.6798953 0.1241936 0.885283 -1.0033654 0.7031563 0.62961453 0.6802735 -1.5475404 -0.445747 1.8288558 -0.13925745 -0.34052587 -0.42131 1.8639032 -0.5110492 -0.09866427 -0.050321806 0.7050153 -0.8323275 0.52155083 1.8653458 -0.48123622 -0.9478998 -0.0045540845 0.38925698 -1.0809871 -1.7805274 -0.2926449 -0.47632265 0.2746996 -0.59361696 0.90114623 1.329552 -1.771703 -0.18538742 -0.5336339 -0.1356877 -0.55097216 -0.13178745 -1.1947851 -0.39520073 0.84832126 -0.075656615 0.59196603 -0.21159804 1.8222541
memory -0.5418976 -0.53484297 -0.08133467 1.6459697 1.1461043 -0.62700796 -0.011733052 0.93115246 0.11217137 0.41099802 -0.46285862 1.0890547 0.42311108 0.9975995 -0.36539438 -0.81692433 0.75413287 -0.22503965 0.044267684 -0.18192585 0.3178861 0.29418683 1.5950128 0.22750908 0.038043357 -0.7025295 1.4293841 2.1792138 -0.5915762 0.78352606 -1.1124619 0.11024464 0.99460685 0.36666715 0.9689972 0.34550154 -0.13189474 0.11635116 0.09842269 -0.72054124 0.10233531 -0.6042816 -0.91658884 -0.25868735 0.23050478 0.29552677 -1.3967944 2.0776176 1.5780944 -1.2601418 0.030332979 -0.7011455 0.88283217 0.9032269 -0.70749414 0.5367563 0.32701322 -0.18228489 0.16270736 -0.27461547 0.049176957 -0.064995594 0.4988626 0.21289167 0.48439986 0.84491897 -1.7103474 1.04314 1.2563275 -0.15601704 -0.08386583 -0.7886653 0.48817575 -0.9133783 0.31233162 -0.7700894 -1.1328653 -1.1736687 -0.107178755 1.045368 0.6539356 -1.0769961 0.5216488 -0.6301549 -0.26033023 1.8893249 0.5852949 0.6485001 -0.3466086 -0.62452734 -0.9473687 0.59101844 -1.760209 0.6317085 0.44524017 0.06888606 -1.1521493 0.22752124 -1.8246264 -1.0977895
computation -0.23328908 -0.014997099 -0.9415585 1.0712012 0.5211291 0.54236645 0.5166734 0.15025091 0.26769623 0.5139647 -0.39626446 0.6750259 -0.44261712 0.111951336 0.04424877 0.27543274 -0.97756815 -0.9401518 -0.6050892 0.3436749 -0.5109453 -1.0050822 0.24456947 -0.963384 -0.16640808 0.39143002 1.2255077 0.26086557 -0.5073708 0.5838907 -0.14648984 -0.22861165 1.4375138 0.03227065 -0.44534922 1.3621509 -0.23554453 -0.53477776 1.0809484 -1.047924 -0.74944586 -0.39101547 0.8294752 -0.99559635 1.0386045 0.81227744 -0.59141964 -0.84507906 -0.8148294 0.77380437 0.44696972 1.0594506 0.6469109 0.92012995 0.5658518 0.11228959 1.0650337 -0.32558787 -0.28772223 -0.22318168 -0.499329 -0.022217346 -0.51886404 0.35115823 0.09721221 -0.8334613 0.88744307 -0.11063897 0.18392688 -0.2251317 -0.48097876 -1.2602631 0.22723258 -0.7335439 0.68699515 -0.65870637 -0.17465866 -0.029221758 -0.97608334 0.004842537 0.038442727 0.84514487 -0.0020044853 0.39707872 -0.66567683 0.3331528 0.38440165 -0.6305737 0.17425549 0.51666564 -0.56258124 -0.5453502 -1.5366865 0.26173213 0.3650603 -0.64336413 -1.2647262 -0.6514025 -0.92758834 -1.224907
strategy -0.62112325 -0.01982172 -1.6063663 0.28914997 0.0040885466 1.6541309 0.13495545 0.3986833 0.26546788 -0.17471804 -0.37166774 0.26490977 -1.038639 0.4934937 0.04772497 -0.14657639 1.1643746 0.835445 0.99595106 -1.0353516 0.78842205 0.090419 -0.47173133 -1.2837566 -0.008423112 -0.18094094 -1.3599148 -0.2612558 -0.547625 -0.36969334 0.02856156 0.047477465 1.7368022 -0.1888605 -0.0039474033 -0.016406579 -0.9039212 0.4285826 -0.7932415 0.79737186 -0.3837278 -0.93054473 0.17680043 0.46991342 0.22307543 -0.74434114 -0.3030041 -1.0348761 -0.41846496 0.38653255 -0.3200068 0.4356426 0.78948736 0.14651154 -0.41651338 -0.15815923 -1.2170868 -0.120192476 -1.3239409 0.98189974 0.20112346 0.14192761 0.55915815 0.8769108 1.6995308 -1.0014545 -0.78147304 -0.1673675 0.41680685 -1.6005347 1.1461072 0.35130605 0.4515236 0.31941164 -0.42821229 0.60747266 -0.74759233 -0.2585773 0.38034564 -0.7891222 -0.33666742 -1.2059971 0.19762857 -1.3393108 -0.23071715 0.90353775 -0.3914504 -0.7499707 0.07487258 -0.375541 0.5524776 0.28405118 -0.51889265 -0.7728574 -0.06662538 1.0153707 -0.2850804 0.13447857 -0.81423646 -0.3310933
iot 0.5262726 1.4625807 0.095604256 -1.6600007 0.40686858 -0.38700247 -1.7825198 0.8734766 0.991641 -0.29312629 0.21235216 -0.17795195 -0.262327 -1.0006588 -1.1142243 -0.6691303 0.546249 -0.2813987 -0.58325344 -0.33930576 -0.526751 -0.670653 -0.64490753 0.30236816 -0.7600101 0.5183953 -0.020332798 0.28576335 -0.2537547 1.3752418 0.438586 1.4594136 -0.24075037 -0.18885691 -0.5961318 -1.1919193 0.16419399 0.5732143 0.06086174 -1.3487866 1.2847899 -0.20830768 -0.020765057 -0.028432975 0.6465622 0.31714132 0.3200937 -0.590143 0.9673617 -0.22485395 -0.13269508 -0.3068118 0.25055087 -0.59210753 0.37997594 -1.4213734 0.24469197 0.29149786 -1.1054673 -0.23110776 -1.1054485 -1.0376544 1.3529252 -0.13416216 -0.29721084 -0.5703755 0.56853455 -0.85620546 0.09223002 -0.24488108 -0.64028966 -0.6224766 0.5542666 -0.43840814 -0.02476295 0.098859854 0.50593597 0.19937272 -0.38693157 -0.13033168 -1.6589924 -0.15063567 0.40945473 1.0274571 0.99267036 -0.97286856 -1.3991593 -0.18218505 0.7679343 -0.2958241 -1.4139775 -0.19457614 -0.949379 0.6687512 0.34625933 -0.367218 -0.61824083 2.3021586 1.306246 0.36732423
knowledge -0.58158916 -1.522756 0.52884096 -0.18282352 0.5753692 -0.540624 -0.30213028 -0.07209487 -0.08723509 0.0863658 0.36845645 -0.6804799 -0.36301666 0.7747236 -0.80962473 -1.5144467 0.87784904 0.5787589 0.32724315 -0.2494724 1.0077975 0.4030055 -0.11344517 0.6953163 -0.59259075 0.2660728 0.6607379 -0.5447974 -0.43956953 -0.6561418 -0.75268054 -0.21027033 -0.90100527 0.6746679 -0.008935584 -1.084656 -0.5006516 -0.3643925 0.14538276 0.6980202 -0.23600166 -1.1596222 0.8351155 0.36713633 -0.6190627 -0.6195538 2.1350124 1.0720123 -0.0843484 1.602792 -0.40614986 -2.1064312 -0.45752025 0.6111449 0.7733739 -0.673097 0.59475094 0.9568083 0.6436448 -1.6861845 -0.92912847 0.873094 -0.128669 -1.3127347 -0.29236796 0.049939528 -0.5491659 -1.2796748 1.0005682 1.8626115 -0.22988221 -0.6818014 0.982811 -0.06736761 -0.56406385 0.8791589 0.7017621 0.37273118 0.9232265 -0.5214881 -0.34413436 0.405874 0.09881885 -0.37153172 0.8262026 -1.3215827 -0.18269168 -0.017126264 -0.78654003 -0.31378478 -0.20513538 -1.0741676 0.6135519 -1.5028796 0.23357537 0.27893707 -0.40850392 -0.4634181 -0.8482206 -0.5469038
case 0.8487389 0.6019393 -1.0804131 -0.25952327 -0.44578576 0.0018547176 -0.08153496 -0.6154596 0.62943524 -0.015307647 -0.15484548 -0.4555673 -1.0768652 -0.84654856 -0.4025191 -0.5124657 0.36812463 0.8092154 0.929863 0.72854763 0.60606897 0.47885528 0.6450913 2.087115 -0.860732 -1.3859143 0.104736544 -0.07735801 0.023318268 0.6643712 0.27335224 0.9602424 0.3144895 0.86559254 -0.52126175 -0.6170844 -0.16261464 -0.40761843 0.94954216 -0.12581752 0.8067358 -0.918755 1.0564785 0.22070219 -0.26696587 -1.0850104 -0.8465599 -0.4000007 -0.174504 -0.47539347 0.8965067 -0.7661544 -1.165726 0.05920309 -0.202395 0.8924104 0.37555 -0.5887663 0.41171512 -0.11562238 -0.32029033 0.072709285 -1.3296593 -0.7809226 1.0585479 0.97310805 0.043271985 0.6776391 0.6680728 0.47931865 0.5902714 1.827501 0.038035423 0.10864877 -0.05393549 -0.5622929 0.82357895 0.13723786 0.5370893 -0.7613163 0.9636568 -1.5549649 -1.0357482 -1.2835499 -1.5683305 -0.37854192 0.1471562 0.31697884 0.2485063 0.065912865 -0.7445798 0.09160887 -0.17767811 -0.14176609 -0.79994375 -0.6024197 -0.29556158 0.92576873 0.34395212 0.8852422
platform 0.16221377 0.63160145 0.15743896 -0.08090933 -0.3232842 -0.43260384 0.994055 0.842152 2.3768113 -0.8248109 -0.7439678 0.08457044 1.2752186 1.0575705 0.30589363 -0.6545925 -0.8544742 0.37245032 0.48470333 0.1448283 -1.3869952 0.7375308 -0.11027857 0.21382403 -1.1549451 1.0097226 0.47801262 -0.55871916 -1.0647347 -1.3932749 0.8112884 0.6195912 -1.0499384 -0.13775478 -0.66980946 0.80312943 0.46649167 0.3738764 -0.36341223 0.13384132 -0.8865623 0.53279686 -0.4067671 -0.62252665 0.5933774 -0.4050322 -0.12709944 -0.2280486 0.36540708 -1.0732638 1.2581341 -0.83012176 -0.7648167 0.2371041 0.28031158 -0.08674831 -0.0034983668 -0.3456274 0.50405407 -1.1038623 0.08614403 -0.7140279 0.8813175 0.053299002 -0.322939 0.90535784 0.5910478 -0.869945 -0.044578034 -0.77663964 0.8085562 0.7501745 0.14162076 0.06658801 -0.938356 0.07880699 -0.20375957 -0.13608466 -0.17917672 -0.77732 0.26351953 0.16744514 -0.028841898 0.21465942 0.39849138 0.4883788 -0.71858275 0.14255905 0.5926694 0.92500776 -0.2335052 0.7516847 -0.5961532 -0.054169647 -1.0174067 -1.6060519 0.3644333 1.300328 -0.30556485 0.07166048
way -0.15022507 -0.67369354 -0.8471116 0.2731761 -0.14193124 -0.22236933 0.13016936 0.00189679 0.6653809 -0.44488218 0.67917705 -0.8517987 0.2274086 0.5215945 0.10365667 -0.83558697 0.49098423 -0.297837 0.7261112 -0.4256485 -1.1146924 0.0995724 0.2283482 -0.24028485 0.6787612 0.31936696 0.09162285 -0.96596956 -0.4250382 0.0029503948 -0.26219288 0.7895316 0.57617086 -0.22127977 0.22065534 -0.11838932 0.63408834 -0.04501785 0.3969249 -0.15345906 -0.006508637 0.347899 -0.4410016 -0.2502375 -0.36168933 0.6239902 -0.4888908 -0.005866406 0.48147085 0.59510386 0.3626471 0.288335 0.37004036 0.11175244 -0.14089103 -0.26831886 -0.77752167 -0.432754 0.6045712 -0.36340728 0.21510997 -0.10610711 -0.82547575 -0.78947216 -0.9056401 0.14809576 0.31213543 0.1100069 -0.34186107 0.68603015 -0.51940674 -0.089134336 0.040873364 -0.3832775 0.7058261 0.6133107 0.39594117 -0.68395996 -0.524038 -1.4501234 0.57614523 1.0208697 0.5094622 0.7465619 0.23943837 -0.13412221 -0.31259716 -0.43029958 0.15004168 0.23897529 0.28067797 -0.12968896 0.15936725 0.8165558 0.17189962 -0.04166045 -0.0938806 0.07698756 -0.52356905 -0.15138672
algorithms -0.14225064 -0.29561305 0.011988136 0.60523915 0.5219165 0.09963628 0.13889816 -0.30848134 0.3585319 0.4618546 -0.81778526 -0.36722335 -0.6185135 -0.5862336 -1.0411847 2.3793378 -1.0097098 -0.06287413 1.0386595 0.9317216 -0.47243845 0.54858583 -0.14007315 -0.27971992 0.0021854525 -0.886174 -0.55626017 0.41939545 -0.63860106 -0.83958685 0.40157515 0.24520414 0.22949931 1.4472508 0.71122396 0.0050807167 -0.0014001294 -0.5173807 0.11320781 0.20286769 0.5042228 -0.35476446 -0.30517796 -0.6399611 1.3206178 -0.46922904 0.0682207 -0.45024088 -0.12311179 0.49225238 -1.3755414 0.5663574 0.5013235 -0.65108997 -1.533561 -0.011801931 1.1625677 -0.3452024 0.36263797 0.45751595 -0.3069856 -1.1176707 0.45946264 -0.3579887 0.63889986 -0.18169488 -1.0304216 0.76308584 0.19404705 0.9304352 0.0142524075 -0.5343085 0.86941296 -0.53099734 -0.20196125 1.0221063 -1.1212034 0.21639551 1.138156 1.041922 -0.37110043 -0.82477117 -0.8966929 -1.0340672 -0.9145145 0.03221182 -0.2639781 0.12942827 0.12815408 0.5281714 1.352955 0.019793017 -0.12718996 -0.14487296 -0.892105 0.056136157 -1.4917874 -0.36337522 -0.681691 -0.2900005
grid 1.8533591 -1.2716691 -0.18023632 0.8016931 -0.42262194 0.16327184 -0.37266204 0.29446954 1.6621236 -0.15943304 0.3091534 0.9406881 -0.4892283 -0.608449 1.1675708 -0.10784062 0.83066237 -0.44053116 -0.39932007 0.61626035 1.0895269 -0.580247 -0.18648843 1.2914894 0.27992395 0.5720551 0.17771558 1.0126958 0.32834634 0.10711144 -1.2450069 -0.21815714 -0.119060755 0.9419123 1.1900158 0.11388549 0.83677363 -0.1434161 0.0032186876 0.41604185 0.005894507 -0.33303222 0.11846726 -1.0369346 0.6767947 0.106985904 -0.10903021 0.07673289 -0.34520918 -1.1363415 1.5354782 -0.032021016 -0.844008 0.48932204 -0.71365666 -0.8824686 0.79017407 0.10667942 -0.5087457 -0.4991158 -0.53415805 -1.1413271 -1.6542393 -1.6693138 0.08882257 -1.6489807 0.44739273 -1.6079744 1.0920886 0.16720924 -0.5466057 -0.1767265 1.1344297 0.59774125 -0.84473944 -0.048135526 1.3293192 -0.6414822 -1.3084244 -1.7742354 0.5230882 -0.44108325 -0.6718715 -0.3814833 0.26760423 0.8034805 -2.14148 0.5804167 -0.836475 -0.24034953 0.074408896 -0.56661624 1.4683361 -0.72444564 -0.118013404 1.4537491 0.13158046 0.6824179 -0.23692113 -0.22865376
internet -0.22869624 1.2828522 0.9617972 0.21852003 0.42164016 -0.028178442 -0.44882497 0.11744705 0.8380085 -0.73008037 -0.5056058 -0.5147366 -0.6877482 -0.5291572 -0.64968896 -0.6571626 1.1274188 -0.6221371 -1.2113227 0.5695753 1.2571529 -0.3552121 -0.8632825 0.28438312 -0.08510905 0.56257683 0.35112536 -0.23612586 1.0931555 -0.40495607 0.0033913802 2.5941958 -1.2048723 0.24557166 -0.48321554 -1.3676845 -0.2893589 -0.046322316 0.45158252 -0.21425833 -0.17874683 0.65816826 -0.4657807 0.46802837 -0.53952974 0.2254221 0.38724327 -0.48757988 0.07487152 -0.266897 0.14787559 1.5476218 -0.7222151 0.8222821 1.3534917 -1.4051963 -0.87731725 -0.85952705 0.92047095 -1.0023426 -0.4148497 -1.3152425 0.5392617 0.5246136 -0.65649 0.2065111 0.40319288 -0.34767696 -0.32759055 0.6239249 -0.1884085 -0.6351596 0.2236995 -0.52401453 0.093919456 -0.50164187 0.4511925 -0.42105335 -0.8861624 -0.022863185 -0.5132845 -0.45285088 0.5249797 0.4684264 0.07867666 -0.4698666 -1.2773854 -0.2569385 0.95255584 0.47263688 -1.6502367 -0.42804906 0.32647997 -0.29101068 1.2268008 -2.1142695 -0.29226476 1.6179465 0.7972606 -1.0194322
structure -0.6215497 -0.67025787 0.027583139 0.15362954 -1.1040573 -0.4979858 -0.75892425 -0.4649132 -0.055867493 0.2593623 0.3559498 -0.43154174 0.6628973 0.34519613 0.055946443 0.3582653 0.39415887 -0.21591343 -0.05050234 -2.1985528 1.0389478 0.24487337 -0.38612604 0.60306937 -1.4830394 0.38028586 0.47008032 -0.6519189 -0.2869205 -0.085377276 -1.0632019 -1.1163583 -0.64686865 -1.3077058 0.08037517 -0.6278808 -0.28329855 0.27562416 0.03174657 1.1203984 -0.40844697 0.5916678 -1.0018171 -0.6390688 -0.6752135 -0.6424479 -0.5792296 1.1555064 1.6379453 0.7779573 -0.3265146 -0.53768057 0.49574545 -0.5353251 0.1415 0.046561286 0.13250184 -0.09927264 0.5550457 -0.50124395 -0.3770662 0.22836772 -1.2715095 -0.3099021 0.27547225 -0.37384504 0.28473052 0.45931762 -0.019542625 -1.4806774 0.26664045 -2.1230454 -1.3007263 0.21135996 0.12424994 -0.2293109 -1.544238 0.33797148 1.8879118 1.7930944 0.71967185 -1.3028291 -0.27902558 -0.49513668 -0.725908 -1.1944796 0.6325699 -1.5038555 -0.26988724 -0.15202276 0.95393896 -0.22995107 -1.2409177 -0.23674224 0.19957265 1.1144848 0.5885197 -0.2754043 -0.802505 -0.57995486
technique -0.0071906247 -0.31255358 0.30949363 -0.6201788 0.263366 0.74489903 0.62446785 0.50557095 -0.15785573 0.5573366 1.5255508 -0.7953979 -0.44208676 0.025622906 -0.2604543 0.17170064 -0.03849982 0.41494063 0.51575583 0.29894832 -0.3290364 1.085173 0.095127046 0.46233764 -0.10841729 0.23317902 -1.3894633 0.28368947 -0.9549035 0.8770788 0.83397466 -0.55126745 0.4163902 -0.2959859 0.69323766 -0.3003077 -0.49361098 -0.58672017 -0.05595943 0.67518276 -0.6367611 1.0004573 0.62089914 0.18341494 -0.48064122 -0.5237637 0.72387636 -0.42454153 -0.28100532 -0.69435304 1.2617366 0.667844 -0.57522494 -1.6069304 -0.40803432 -0.45093343 -0.06943058 0.63713783 0.34784564 -0.3303166 -0.25256047 0.8209264 0.599248 -0.18382317 1.0172185 -1.2008898 -0.123760104 0.22995368 -0.0062013287 -0.4813044 -1.1188912 0.81008786 0.4413835 -0.7149178 -0.045017164 0.03663228 0.045349244 -0.43506724 0.21750991 0.6062391 -0.6058844 -0.14037004 1.4472474 -0.27208447 -0.53301555 0.35110918 -0.5259572 -0.16922903 -0.18133402 0.923459 0.40500206 -1.3825786 0.22706482 0.9022191 -0.40510184 0.42168635 -0.68608063 -1.0519849 -0.6171037 -0.6288985
protocol 0.51960695 -1.9656925 -0.5672925 0.52003133 0.20244578 -1.7638415 -0.21429218 -1.1727422 -0.52279985 -0.17595835 -0.37230632 -0.8699787 -1.4959235 0.22362156 0.42960736 1.1680864 0.36502856 -0.8461156 -0.09601188 0.20861372 -0.75754684 0.78525794 -0.113897786 1.1669203 0.040553328 -1.0587057 -0.7378064 0.86776733 -0.23218976 0.3201968 -0.6848492 1.0468053 -0.31560692 -0.29256624 -0.4719805 0.76309377 0.6970113 0.41495386 -0.8224965 0.6969633 -0.51461226 -0.2712214 -0.10754587 0.5924869 -0.49723652 1.3545705 1.1193876 0.65821785 0.30302763 0.14275144 0.57584184 2.7863927 0.54732835 1.1635175 0.77984244 0.6110969 -0.18810944 0.56074 -0.9274768 -1.3855673 1.5001484 1.9328734 1.202147 0.20517838 -0.6475733 1.1087161 1.4566777 -1.8501439 0.8524216 0.95299035 0.2631692 1.2161428 -1.968565 1.5908988 1.3445145 -0.4969133 -0.40404636 0.23763363 -0.439777 0.8002295 0.06831582 -0.02416611 -0.045344155 0.96831894 -0.019290144 -0.7245893 -1.4553316 -0.14380662 1.2850901 -0.39313167 -1.1334183 -0.65823334 -1.9699097 1.6710757 0.7053918 -0.9001323 -1.0473799 1.8366728 0.7292134 -2.394602
load -0.263368 -0.61576235 -0.9029671 1.105426 -0.7770572 0.69206524 1.4548856 -0.064247906 0.2182641 0.27550712 0.28657803 2.4384658 -0.3933613 1.5221809 -0.175154 -0.777478 -0.1822464 0.26501566 -0.69127727 1.5409857 -0.01015914 0.084398076 -0.19197026 -1.087209 0.89067185 -0.688715 0.75779283 0.9237187 -0.23149984 1.5060852 -0.40818867 -0.6793037 1.6861111 0.6643334 -0.40949628 0.94087726 1.2471124 -0.247849 0.5521008 0.69118977 -0.3392108 0.33687228 -0.36069933 -0.78044176 -1.1225493 0.21227285 -0.7054285 -1.1532667 -1.237391 1.1783631 -0.30184892 1.1661768 -0.08142088 2.0066338 -1.6716499 0.09136283 -1.7336786 0.8395887 -0.77737814 0.35305768 0.80839103 -0.834981 -0.413158 0.028412266 -0.51099086 0.07984483 -0.09251788 0.87544334 0.5602554 0.056529064 0.30653265 0.11322541 0.51947695 0.6794685 -0.6895906 -1.1160872 -1.0724641 0.574142 0.16865775 0.03452233 -2.1876924 -0.61529124 1.2271624 -1.097632 -0.64538455 -0.6201426 0.43213704 0.7238013 0.27676994 0.60072774 -0.48069188 0.3776528 1.0687935 -1.3768796 -0.73211706 1.5291382 0.42899022 -0.5630232 -0.5222445 0.43237385
graph -1.822819 -0.38949564 -0.3171944 0.4258999 -0.3671627 0.5868272 -0.18250272 -0.47972548 -0.13879551 0.39143878 -0.80310047 0.10665815 -0.00089801155 0.33728778 -0.21215332 0.21800014 -0.9515036 0.79803586 -0.067942314 1.0066261 0.22419482 0.20328268 -1.0548156 0.52891546 -1.5320235 1.2282826 -0.44841874 1.0477803 0.6136273 -0.14447583 -0.41637766 -0.2485199 -0.31550413 0.19921091 -2.004189 -1.7233757 -0.7825743 -1.832763 0.59304017 -0.32229334 -0.19496359 -0.117164455 0.68050736 -1.3107353 1.0994362 -0.19835883 1.2141582 -0.8028562 -0.20891352 2.8322134 -0.59252775 -0.09789377 -0.63449067 0.86806923 -0.7620979 0.29180288 0.7311277 0.49193007 1.0046679 0.50832933 -0.27716497 -0.68734294 -0.7118241 -0.48586214 -0.3803166 0.6708429 0.16896228 0.30861416 -0.016667312 0.38432902 1.3741995 -1.565133 -0.27560952 -1.0964067 1.5000602 0.9633345 -1.0003374 -2.116172 0.70845246 1.6762223 -0.26781303 -0.35376722 -1.2982852 -0.5338005 -0.4742971 -0.26230484 1.3808731 -0.3615258 -1.5714312 0.4717593 0.9029177 -0.86962694 -1.1975144 -0.3180968 0.061181612 -0.5678846 -0.4288109 -0.187675 -3.7040677 -0.6339602
feature -1.7616935 -1.0401924 0.677429 -2.560431 0.31903243 0.5364189 0.22539054 0.6506327 -1.7554215 0.16817626 1.3686563 -1.7073745 0.2825157 0.32059145 0.8726133 0.32654852 0.9693507 -0.15974872 0.5659575 -0.64227164 -0.4121091 -0.96926075 -0.5842914 0.70300543 1.0001312 -0.23497146 -0.86931133 0.99247915 -0.9275427 -1.893422 -0.07353476 -1.0500757 1.3270645 0.46556157 -1.3963189 -1.3565495 -0.30896702 -0.063645326 -0.46376866 0.492468 0.30602035 0.21497823 0.8787676 0.54218197 -0.54533774 -0.15200771 0.4354612 0.5171413 0.55111843 -1.013362 1.1545537 -1.5863773 0.9504166 0.25855014 -0.14190277 -0.052838147 0.9207909 -0.23955992 -0.11380193 -0.8534547 0.03183676 0.5756011 1.0777006 0.58566374 1.46494 -0.34363586 0.26599526 0.8516997 0.5818766 -0.23716272 0.07631103 0.26210564 -0.4874048 -0.8360229 -1.4516393 -0.6781098 0.52091706 -0.42368636 1.7376043 0.7657384 0.20393634 -0.29310358 1.9798999 -0.760523 0.881722 -1.2679385 1.3851913 0.7487332 0.52641124 1.2937729 1.6329476 -0.35754955 -0.70906705 -0.17328283 1.2433215 0.10884197 -0.21965185 -1.2612714 -1.4498606 0.95494527
rate -2.110846 -0.9403208 -0.49322993 1.7381516 1.3685955 -0.18601085 0.036181226 -0.35633895 -1.600575 0.7100412 0.23928583 0.8556168 -0.1716778 0.57307464 0.5817402 1.0144677 -0.012859601 -0.22602291 -1.0385677 1.0766907 0.43647894 1.3826932 1.1828064 -2.3456986 -0.9717428 -0.22373736 0.7718806 -0.075999424 -0.3099405 0.9376513 0.17771354 0.45027977 0.043811545 0.038585313 1.4188652 0.5030449 1.1434119 -0.39035076 -1.1083847 -1.0578289 0.5123373 0.059909187 2.2213967 -0.89918345 -1.0910988 0.5647257 0.4365389 0.6575557 0.08560471 0.20102777 -0.036655247 -0.85826486 -0.820242 -1.4381192 -1.1300149 -0.40435907 -0.7842355 -0.92191267 -0.5478471 1.4492415 -0.2698056 -1.2173419 -0.8595304 0.7882622 1.5361707 0.89405584 0.7095177 0.7015253 1.7368809 -0.5130349 0.8469208 1.865392 0.5074458 0.30039528 0.31031212 0.025463594 0.1389159 -0.9192835 0.6209313 0.5219652 -2.0640266 -0.48657614 0.0020491916 -0.58438826 0.46245635 -0.68034047 1.3562622 0.8291551 1.3862932 -0.7502031 0.18781126 0.14286086 0.34624135 1.835641 1.0824257 -1.4539171 0.63604504 0.08300498 0.613288 0.3654193
user -0.19445531 -0.54860497 -0.9612228 0.5706864 1.339562 0.093819484 0.16957238 -0.39245236 0.5349621 -0.41300675 -0.3204855 -0.4856427 1.1399804 -0.3390807 2.0191905 0.4339673 0.4138518 1.2949203 -0.66193384 -1.0329287 0.08851435 -1.7356151 0.12798598 -0.3800636 -0.30027753 0.5841363 0.6878016 -0.5637468 0.32754526 0.43118596 -1.140398 -0.11191118 -0.5058856 0.5184738 -0.078050956 -0.10591391 0.36266395 1.2243395 -0.23430772 -0.64185 -0.35152638 1.6682112 0.8827993 0.6142825 1.1682918 -0.21923172 -2.273585 0.7663928 -0.7760549 0.40632066 0.50228196 -0.03373187 -0.69190806 -0.22563353 0.86977184 0.059012253 -0.32975814 -1.0493302 -0.21843264 0.45525232 -0.26422447 0.8200834 0.10993991 -1.2539351 -0.7387857 0.6238021 -0.08682093 -0.68791795 0.7492928 -0.17476764 -0.44160032 0.25459906 0.01588137 -0.5303655 1.0198212 0.15023544 0.13517085 0.36217746 -0.9017639 1.0145743 -0.70992774 0.7803333 0.7483756 1.0466608 -0.5183372 -1.8960139 0.27605042 -1.4199294 0.40751442 -0.22392629 0.07670453 -0.6601728 0.07851032 -0.99696934 0.73600835 0.28408328 -0.123601265 0.43184856 -0.79973674 0.78444827
issue -0.2928082 1.0770087 0.016224725 0.5601712 0.3092087 -0.6807597 -0.7208845 0.483558 -0.40446317 0.31870222 -0.07383725 0.27517405 -0.32662654 -1.0244651 0.010663245 -1.1366246 -0.87001306 0.37512222 0.552436 1.1743282 0.39505213 0.23972645 -0.59388727 0.29361752 -0.6308206 1.4230267 0.76681095 -0.22850108 1.3995122 0.26155636 0.26142207 -0.32846674 0.2910883 0.95694894 1.3832049 -0.4073908 -0.073962465 0.82809365 0.08015404 -1.2190197 -0.69259804 -0.4331474 0.26908496 0.97073084 0.46451235 0.033404194 0.9953662 -0.17787242 -0.7715245 -0.3914154 0.46602258 1.2455456 0.6231613 0.15150374 1.4379865 -0.7116589 0.13312891 0.110866845 -0.47636417 -0.0073587983 -0.17419739 0.8722381 0.4671115 -0.5180516 0.036026794 -0.082994744 -0.6320783 1.051103 -0.41710827 1.4707966 -0.67395526 -0.4989006 -0.38321745 -0.18790752 -0.5727693 0.19246067 -0.2636829 -0.5981119 -1.4650607 0.72010326 -1.5600903 -0.28471595 0.41747582 -0.02061347 -0.2623847 0.34446406 -0.9047036 0.36280468 -0.5982739 0.29963496 0.005318649 -0.5211561 0.47050297 -0.27044204 0.67269784 0.96401334 1.3477948 0.60689133 -0.08284499 -0.66075546
search -0.087575115 -0.53281647 -1.1305532 0.56212777 -1.3132733 1.1687846 -0.36351562 1.451552 0.50171566 0.6831727 1.2974284 0.92179847 0.13586168 -1.2237344 0.8378252 0.9613165 0.5342891 -0.044437367 0.48665002 -0.27560133 -0.22654128 -0.299114 -0.2555151 0.9024278 -2.7468417 0.7004743 -0.78529143 -0.6490278 -1.1075145 0.4438077 0.31489232 -0.86270565 1.2721895 -0.31014904 0.6907508 -1.6154721 1.2330407 0.04829946 0.32158598 -0.7048414 -1.1821754 -0.49222654 -1.8501137 1.423119 0.09363786 -0.45041513 1.3215575 -0.49359795 -1.8443247 1.8285239 -0.418177 -1.1629001 -0.32730633 -1.0069118 0.029125033 -0.6105536 -0.9591036 1.3652314 -0.7153598 -0.020515112 1.0478084 -0.7585329 -0.25208366 -1.7147646 1.8424635 0.72542506 -1.47289 0.32902372 1.4485357 -0.41241017 -0.3710626 -1.0567911 -1.0945563 0.026570123 0.49523783 0.92440486 -1.2051688 -0.5601227 -0.11388644 2.3227673 0.43692583 -0.25269207 -0.034071587 -0.20937698 0.7624549 0.2969481 1.2014283 -1.2789061 1.3780476 -0.39382705 0.22100419 -1.3935208 -1.45108 -0.52178216 0.673525 1.8195504 -0.65863377 -0.6328018 0.72314626 0.919468
addition -0.29201868 -0.9985231 -0.49313176 -0.6197693 0.19637145 -0.78725135 -0.5116112 -0.61400855 0.36802813 -0.06760216 1.0510867 0.25001317 -0.082335666 -0.20834053 -0.62026125 0.39507097 -0.21740466 0.5852578 1.1590476 0.068804935 -0.73790884 0.11372004 -0.60284406 0.34252936 0.8363255 0.15316175 -0.32557425 0.47905445 1.0576496 0.1682215 0.6433295 -0.14222972 0.37255037 0.12941314 0.5733619 0.2896843 -0.15491098 -0.42438367 0.44306594 0.29859936 0.40565303 0.49948403 0.6467895 -0.01872822 0.16848563 -0.70497084 -0.5401289 -0.4842793 -1.1460824 -1.2189685 -0.5338917 0.23022902 0.36315656 0.12422686 0.85473025 -0.46051344 0.5745553 0.6372772 -0.4521595 0.71965176 -0.48813972 0.15204303 0.9641131 0.27911982 0.48458344 -0.13625307 0.49080214 -0.14628066 0.5652772 -0.7432357 0.52908623 0.13104634 -1.657696 0.3500247 -0.11322116 0.19392926 -0.41869628 -1.1359075 0.039763644 -0.0060539762 0.5947592 0.773542 0.6146121 -0.31724247 0.102434926 0.3673638 0.056409247 0.11950699 1.866775 -0.5570236 0.49872676 0.12808636 0.91904867 0.86484885 0.058753245 0.47515595 -0.45153993 -0.9230544 -0.5900147 0.099342965
edge -0.31266788 1.2705092 -0.964111 -0.01639266 1.2499639 0.60561985 -0.3344889 0.38829228 0.7950269 -0.041859724 0.19995135 -0.7533924 -0.525115 0.40807813 1.1462618 -2.0339003 1.5794145 0.4455418 -0.26599804 0.06863765 -0.8939977 -1.8376323 -0.39891917 1.1827518 -0.43162966 -0.6027049 0.94800824 -0.9921971 -0.0564895 -0.11466336 0.75264966 -0.047010303 -0.19464123 -0.048235033 0.4820775 0.41874912 -1.2296678 1.1307569 2.1080031 -0.2795354 -0.42812088 0.19203965 0.14727956 -1.2403399 0.6259306 -1.5686198 -0.5551621 -1.5247611 -0.2704263 0.01936217 -0.344517 0.21195965 0.6145147 1.4814355 -1.2958326 -1.4133488 0.05575416 0.6660803 0.23188607 -0.05112962 -0.36168352 0.97979873 0.6200992 1.9865526 -1.561644 -0.4857794 0.30766258 -0.9287576 -0.6937596 0.41619745 -0.48241493 -1.2402653 1.0303198 0.42863557 -0.3514685 0.738235 -0.5644234 -0.31725118 0.9223013 0.89427006 -1.4075636 -1.0008792 -0.16340004 0.44433674 -0.48702723 -0.41335267 -0.87580264 -0.79595476 1.0649498 0.441021 -0.58335024 2.5294516 -0.76233226 -0.16779979 0.7444636 -0.67881775 1.2789706 1.0221945 0.1617503 -0.9522866
selection -0.9242018 0.6292016 0.20120339 0.9377694 -0.32204413 0.23689367 1.9501584 0.46091095 0.7145398 -0.6054171 0.05646918 -0.7905219 -1.1446933 0.6792249 0.03320211 0.49824858 0.6329938 1.7639804 0.23212865 0.17505893 0.85104495 -1.372437 -0.34761167 -1.0626196 -1.1552012 -0.12678233 0.008021549 0.6332462 0.17752019 0.7428091 0.044764835 -0.7724484 0.3073382 0.6321108 -1.2579452 -0.5879601 1.0877695 1.1600386 -1.0564797 0.52628154 -1.1739208 0.8845605 0.47690102 1.0460912 -0.043774445 -0.07320729 0.48404303 -0.1252248 -1.425782 -0.7921995 -0.8077078 -1.3354657 0.3302558 0.17066713 -0.17642038 0.84051204 0.7906609 0.12687762 0.8732814 -0.46607852 -0.2479876 -0.08361294 0.28518745 -0.19971393 0.9886709 -0.62201 1.699138 0.1845889 -0.7391205 -0.19599049 1.0869117 1.3383641 -0.27915898 -0.5956626 0.024909915 -0.22164021 -0.0037678173 0.17336176 0.5484418 -0.75601166 -0.18139914 -1.1542852 1.1771905 0.21157342 0.54312503 -0.94950366 1.3961283 -0.0974892 0.80942327 0.5035481 1.5688506 0.90255606 0.037051305 -0.8686236 0.7488632 1.2689788 0.9765858 -0.31520325 -0.22571328 1.09288
allocation 0.45787355 0.8275496 -1.1726635 0.42423505 0.32145384 1.4847236 0.9284201 -0.41939765 1.2703453 -1.4180876 -1.5042285 -0.021935062 -0.6321543 1.2395816 -0.13701792 0.52414846 0.16331202 1.2892764 -0.26796895 0.98921937 0.4793697 -0.91202515 -0.109508306 -0.77344203 0.13516738 -1.3446739 0.6447979 -0.44562924 -0.9192621 0.59695965 -1.2483119 0.10676848 -0.29494807 1.9290143 0.45976955 -0.74101746 0.7035102 -0.119458 0.9855989 -0.5910953 1.4579098 0.5721727 0.0009927802 0.44216937 -0.57151574 0.34191453 -0.10571462 -1.8672221 -2.125056 -0.5811414 -1.4680617 0.3756054 0.14601807 0.27700028 -0.33174524 -0.38013273 0.6044908 0.6466217 -0.8222936 0.76839614 0.8935639 0.675612 1.1701443 -0.26263478 1.0171604 -0.60820884 1.2289833 0.914864 -0.45452082 -1.1451 -0.95528805 0.7297541 1.2488399 1.2236111 1.4817345 0.57018465 -0.6346221 -1.203231 -1.0370221 -0.69424313 -0.07404733 -0.94234276 -1.4793463 -1.4568574 -0.029989218 0.7390838 0.7654884 0.6602181 -0.96653175 0.36196584 -0.68269664 2.3840096 0.3928643 -0.9890676 -0.6742624 1.6263103 0.5302724 -0.27224162 -0.491297 -0.60523605
classification -0.9458597 -1.0127511 0.4625751 -1.0093892 1.2549332 0.6205535 -0.532624 0.27190205 -2.6791215 -0.23874512 -1.6002002 -1.181993 0.15490577 1.031461 0.58207893 0.83984077 0.6082554 -1.3555645 1.4325814 0.63294214 0.2679077 0.90498155 0.33964643 -0.8564615 -0.35463962 -0.6586179 -0.9286471 -0.25061998 -1.1223629 0.009698131 0.74337065 -0.83410347 0.49746737 -0.1280479 0.13405174 -1.9447366 -0.80612373 0.40147337 -0.68764603 -0.6078892 -0.38244814 0.65903187 1.3726884 0.67097926 -1.5411747 -1.7617164 0.95737314 -0.035271663 1.6739736 0.6120594 0.7021509 -2.1200292 -0.7405828 0.3753181 -1.1095383 -0.21589208 1.3519934 -0.36431053 -0.7035456 0.18761604 -0.7002315 -0.7600673 -0.21153374 -0.051166583 0.4450925 -0.64891803 0.48774406 1.0770564 -1.2652745 1.2043712 0.12107689 1.1129575 -0.2702527 -1.2659324 -0.19220382 1.2363745 -0.78954446 -0.20275176 1.246839 0.40188405 0.31195316 0.32988432 0.5861979 -1.7741709 -0.39202806 -0.16165462 0.7814125 0.26432678 0.017759604 0.08231622 0.6324467 -1.0902756 -0.054410636 0.36469463 -1.2309161 0.2940131 -0.93872136 -0.95477945 0.16257937 1.6562032
complexity 0.62681425 -0.1373016 0.54606533 0.80727106 1.0709194 -0.46502456 -0.0012568068 -0.04691792 1.1481291 -0.44938597 0.40097645 -0.8595602 -0.45956782 -0.34225404 -1.6643474 -0.019405354 -0.56329715 0.31372207 1.4091575 1.0047215 -0.7055189 -0.41640925 -0.54771936 -0.23350641 -2.3164322 0.88692963 0.6715651 -0.18177131 0.3168486 0.043358248 -0.037746448 -0.62235385 1.1547024 -0.46124303 1.1863354 0.5786637 -0.09005884 -0.539591 0.62457347 -0.92319614 0.19001842 -1.6338106 -0.29795834 -0.29856354 0.37900358 1.2831753 -0.29276213 -0.6888057 0.007913865 0.6137729 0.42313272 0.026658408 -0.7659632 -0.79790395 -0.8727407 0.74754524 0.5316251 0.05028219 -0.16181643 -0.93258417 0.15310031 -0.5648343 -0.07842986 0.3848752 0.023020515 -0.142385 1.1929953 0.5299819 1.060469 -0.023945186 -0.6233347 0.08269633 -0.025372842 -1.2984629 -1.3670135 0.4642936 -1.3217484 -1.2117661 0.90675515 0.45466563 0.23473586 0.7962322 -0.76394176 0.38900954 0.5416411 0.25932768 -0.60181916 -0.81326354 -1.4115462 -0.7906346 0.27961814 0.11136135 0.6217444 -0.4353382 0.25187388 0.3101556 0.21520305 -0.7028921 -1.8045322 -0.03458215
cluster 0.14331353 -1.3012685 -1.5832032 -0.9973926 0.33144027 -0.24903218 1.451261 0.20245048 1.7756182 1.2215122 -1.1194344 1.2720128 -0.29882213 0.58254606 0.5553721 -0.68381506 0.7019041 0.58520496 -0.544913 0.76664287 1.2351143 0.6497955 0.034977686 -0.18121909 0.0967168 -0.8423526 0.26071972 1.1415125 -1.5622481 0.5320335 0.84556067 -0.70950586 -0.55993336 -0.03236992 0.8912745 -0.07667707 1.2819613 -0.5145101 0.44407028 0.65043515 -0.10358015 0.969975 -0.89185864 0.25501025 2.1387072 0.55423224 0.014580126 -0.13788064 -1.0240989 -0.6941574 -0.09981391 -0.1576793 -0.8850978 0.9350984 -1.5561954 1.117919 -0.10032245 -0.35972446 0.41798663 -0.562426 -0.457378 0.23606408 -1.8854834 0.3105089 0.22168063 -0.52316844 0.009457709 0.328162 0.2755399 -0.3150421 0.9946772 -0.026112812 0.022261117 0.15738727 0.027556809 0.08478954 -1.3658719 0.032799866 0.10984714 0.058907323 1.0198885 -0.23742425 0.29087117 0.3362103 -1.2127808 0.8828048 1.8571354 -1.266 0.46182963 2.404178 -1.6421137 0.18589576 -0.046117 -0.29357985 -0.941051 0.3307191 0.59231186 -0.9259774 -0.8005142 0.0729869
